</s> 0.006254 0.006905 -0.005985 -0.005122 0.002135 0.004720 0.001470 0.000330 -0.005630 0.003466 -0.006807 0.001952 -0.001174 -0.001496 -0.005181 -0.002941 0.004030 0.004727 0.004639 0.002496 0.002414 -0.005942 -0.006400 0.007765 0.005939 0.004828 -0.000944 0.006274 -0.000773 0.001148 -0.000233 -0.004661 0.002050 -0.002090 -0.005977 0.007428 0.006843 -0.001711 -0.000353 0.000796 -0.005684 -0.006261 0.007117 0.000098 -0.004035 -0.004753 -0.004807 0.002651 0.000315 0.002080 -0.006584 -0.005950 -0.000203 0.001787 0.003984 -0.004953 0.006374 0.001448 0.001750 -0.000951 0.004666 -0.003575 -0.003277 0.003372 
， 0.077850 0.164515 0.030090 -0.014953 0.049945 0.011342 0.198824 -0.165316 -0.187901 0.144666 0.091064 -0.155114 0.047743 0.077086 0.039912 -0.035167 0.158870 -0.071742 0.136574 0.071720 -0.032582 0.013876 0.101120 0.005897 -0.054231 -0.006910 0.023859 -0.011277 0.099364 0.085792 -0.016940 -0.104371 0.110926 -0.058166 -0.013199 0.025714 0.039710 -0.049580 -0.012610 -0.012246 -0.081278 0.036612 -0.128118 -0.184034 0.096622 0.011824 0.053254 -0.041072 -0.067996 0.126598 0.034531 0.050432 0.018565 -0.118273 -0.138956 -0.107675 -0.068624 -0.002288 0.012252 0.109920 0.076747 -0.052265 -0.009512 0.131128 
的 0.192990 0.140667 -0.002801 -0.036819 0.050014 -0.007640 0.253284 -0.188950 -0.172061 0.070354 0.144005 0.028200 0.093280 0.082782 0.029832 -0.035024 -0.008633 -0.117755 0.015617 0.046000 -0.003718 -0.033577 0.223242 0.036245 0.009966 0.040259 -0.090018 -0.099218 0.062678 0.028092 -0.169966 -0.053449 0.047698 -0.073242 0.124158 0.012349 -0.019886 0.035091 -0.052276 0.101833 -0.029930 -0.034864 -0.030056 -0.203615 0.000210 -0.022020 0.074492 -0.053250 -0.168170 -0.002493 0.060824 0.026387 0.007872 -0.000714 -0.139922 -0.068574 -0.001242 -0.113898 -0.001924 0.047759 0.106344 -0.008004 0.064457 0.165756 
。 0.088102 0.153535 -0.006767 -0.037245 0.012491 0.009239 0.077585 -0.234045 -0.194929 0.003636 0.001320 -0.127674 0.115760 0.175194 0.020733 -0.069864 0.003192 -0.066707 0.035530 -0.037969 -0.040138 -0.068672 0.046465 0.019852 -0.097445 0.001067 0.055851 -0.059770 0.079440 0.085037 0.053039 -0.036550 0.079023 -0.100588 0.015564 -0.073099 0.032818 0.100360 -0.114679 0.083825 -0.005126 -0.035010 -0.028453 -0.155690 0.034091 -0.074879 0.024556 0.012910 -0.185032 0.022438 0.177188 0.004746 0.022208 -0.090113 -0.059742 -0.161430 -0.107402 -0.107641 0.015438 -0.003766 0.082216 -0.183884 -0.000897 0.134888 
是 0.156525 0.069265 -0.048679 -0.100297 0.143599 -0.027694 0.135258 -0.082056 -0.196872 -0.020018 0.163460 -0.088093 -0.016024 0.144988 0.061101 0.015440 0.063471 -0.143687 0.057908 0.067618 -0.022842 -0.085636 0.113803 -0.055815 -0.083331 0.094204 -0.104117 0.013376 0.018910 0.050897 -0.000194 -0.014700 0.074738 0.005794 0.016057 -0.159225 0.118136 -0.132395 0.005189 0.153905 -0.066319 -0.090565 -0.117812 -0.127465 0.174936 -0.020852 0.040155 -0.068611 -0.133583 0.100790 0.143359 0.092042 0.023478 0.043472 -0.142147 0.011191 -0.037026 -0.174680 -0.017873 -0.012682 0.124346 -0.119874 0.029023 0.093295 
不 0.112801 0.182651 0.029887 -0.001350 0.024901 0.061729 0.200523 -0.040004 -0.330561 0.067137 -0.115326 -0.106153 -0.112770 0.210850 0.057334 -0.009884 -0.009404 -0.162191 0.176375 -0.031699 0.139629 -0.034970 0.114669 0.011573 -0.200802 -0.107302 0.127762 -0.015401 0.250783 -0.055412 0.064501 -0.087353 0.033430 0.075584 -0.139714 -0.056734 -0.033110 -0.024975 0.045293 0.120797 -0.216711 -0.099643 -0.117441 -0.024697 0.181523 0.076842 0.198857 -0.069464 -0.097647 0.034970 0.160516 -0.011691 0.091509 -0.250684 -0.243769 0.058159 -0.008422 -0.005820 -0.102426 -0.093383 0.032525 -0.239196 -0.138088 0.220070 
了 0.057110 0.190646 0.020820 0.001471 0.092700 0.028940 -0.007325 -0.200911 -0.230879 0.078042 -0.013839 -0.232687 -0.045116 0.223173 0.155397 -0.103633 -0.113107 -0.141426 0.208548 -0.014606 -0.036756 -0.093702 -0.045035 -0.050832 0.082424 -0.071936 0.098344 -0.017680 0.082370 0.045295 -0.048035 -0.010857 0.112685 0.021339 -0.048789 -0.011811 0.093027 0.113441 0.025357 0.057998 -0.114877 0.068743 0.010223 -0.182536 0.033886 -0.012570 0.066445 0.035442 -0.160251 0.107514 0.011707 -0.053851 -0.011562 0.002420 -0.181990 -0.189527 0.110205 -0.068456 -0.073664 0.087316 0.093700 -0.121910 -0.002769 0.120341 
车 0.151424 0.088769 -0.075889 -0.133096 0.262150 0.140732 0.157629 -0.225466 -0.016981 -0.005350 0.039186 -0.124714 -0.122453 0.029704 0.061416 0.105838 -0.160825 -0.021940 0.196386 -0.115557 -0.114582 0.137025 0.024778 0.258361 0.138822 -0.229759 -0.195670 -0.163368 0.116861 -0.014820 -0.046754 -0.046500 -0.068772 0.180964 -0.134960 0.043416 0.144897 0.289688 -0.268696 -0.054964 0.218952 0.041974 -0.005143 -0.274293 -0.109035 0.165456 -0.007477 -0.105536 -0.207899 0.063959 -0.041169 -0.027105 -0.126968 0.022244 -0.398091 -0.269106 -0.026385 -0.123276 -0.046367 0.156871 0.048727 -0.075957 -0.075105 0.232197 
0 0.263628 -0.236021 0.288843 -0.067999 -0.142081 0.052826 0.285476 -0.208082 -0.170786 0.351124 -0.353182 -0.260800 0.279798 0.046873 -0.178451 -0.016136 0.114908 -0.240359 0.141235 0.030718 0.127315 0.053581 -0.441449 -0.117799 -0.009529 0.358549 0.307951 -0.414790 0.163970 -0.098535 0.043416 0.268314 0.257126 -0.273853 -0.080671 -0.036994 -0.097208 -0.281388 -0.164946 -0.110820 0.243297 0.237427 0.184462 -0.368549 0.015010 0.048925 -0.281200 0.197069 -0.227560 0.012438 -0.300648 -0.018596 0.110141 0.204290 0.154594 0.242839 0.258640 -0.135802 -0.123367 0.173447 0.319136 0.440905 0.140570 0.147186 
一 0.206110 0.232743 0.174184 -0.196270 0.120681 -0.029231 -0.090423 -0.495509 0.108092 -0.157677 -0.094437 -0.077644 -0.017939 -0.088810 0.413904 0.031360 0.013232 -0.095423 0.221563 0.266845 -0.065157 0.073568 0.155927 0.072484 -0.124455 -0.025483 0.348960 -0.151133 0.215930 0.323288 -0.264759 -0.191143 -0.099741 -0.013434 0.101311 0.033006 -0.046405 0.226129 -0.026379 0.126184 -0.080963 0.227013 -0.037511 0.003492 0.138593 0.280357 -0.118406 -0.046035 -0.012119 0.083953 0.049815 0.067349 0.163902 0.088781 -0.023870 -0.099918 -0.096997 0.200543 -0.052406 0.007097 -0.052266 -0.115996 0.060750 0.136233 
有 0.072168 0.043596 0.005687 -0.294889 0.272169 0.058222 0.000986 -0.017913 -0.257887 -0.019933 0.050784 -0.291551 -0.047744 0.008483 0.139900 0.088992 0.159949 -0.155665 0.177189 0.168983 0.014077 0.034832 0.188236 -0.036426 -0.257576 0.059916 -0.111256 -0.022224 -0.017466 0.074777 -0.170277 -0.056382 0.172043 -0.046052 0.010019 -0.221246 0.329966 0.023609 0.028042 0.076166 -0.020772 0.136107 -0.259012 0.014333 -0.056959 -0.240520 0.142460 -0.172611 -0.064121 0.087631 0.076665 0.114646 0.046136 -0.176163 -0.108266 -0.111001 -0.065108 -0.127463 0.013394 -0.030371 0.080841 -0.068243 0.013490 -0.004596 
油 -0.190232 0.139511 0.193825 -0.034925 0.225901 -0.035871 0.207601 0.107559 0.110118 0.378666 0.031530 -0.090485 0.088100 0.022472 -0.281058 -0.094904 0.445627 0.214628 0.523788 0.126643 -0.111090 0.231800 -0.161004 -0.108554 0.046999 0.037666 0.278828 0.168411 0.142772 0.120050 -0.149867 0.122907 0.085623 -0.351910 0.077394 -0.342153 -0.404475 0.112173 -0.333389 -0.053446 0.107727 0.117573 -0.118518 -0.400207 0.260136 -0.195700 -0.213743 0.231100 0.077885 -0.074239 0.323359 0.008081 0.109042 -0.141702 -0.357491 -0.053930 -0.088921 0.019494 0.053219 0.076915 0.002998 -0.105278 -0.544989 0.058301 
2 0.216240 -0.136826 0.121908 0.077102 -0.002642 -0.181376 0.267177 -0.194795 -0.351845 0.090402 -0.272905 -0.049627 0.201533 0.371160 0.073104 0.128791 0.090051 -0.301468 -0.015053 0.044585 0.225892 0.067598 -0.157961 -0.193544 -0.077885 0.327985 0.207178 -0.135017 0.353551 -0.079691 -0.035943 0.366676 0.217640 -0.326558 -0.003734 0.136305 -0.161198 -0.132544 -0.024840 -0.030709 0.262350 0.304281 0.039779 -0.357070 -0.202162 0.122338 -0.214972 0.319566 -0.110803 -0.285486 -0.169470 -0.038328 -0.061535 0.055513 0.045230 0.013419 -0.036744 -0.004087 0.037439 -0.057755 0.302603 0.484989 0.084345 0.288599 
我 0.122539 0.242904 0.083595 0.029809 0.286943 0.097380 0.031737 -0.061412 -0.429898 -0.056688 0.038613 -0.176665 -0.021153 0.163615 0.024878 -0.130920 -0.134232 -0.197750 0.185926 -0.021273 0.042116 -0.126628 0.071905 -0.007373 -0.040578 0.024238 -0.043010 -0.088639 0.154912 -0.067473 -0.155950 -0.069986 -0.099843 -0.185469 0.024592 -0.002058 -0.135140 0.185267 0.072027 0.147156 -0.035842 0.037797 0.265463 -0.228175 0.084695 -0.108178 -0.282220 -0.085492 -0.193779 -0.110540 -0.010077 -0.219303 0.048043 0.057313 0.041934 -0.099053 0.016350 -0.094760 -0.101523 -0.054994 -0.019446 -0.172068 0.096262 0.244511 
. 0.226542 -0.186789 0.112111 0.165348 0.028986 -0.210281 0.278389 -0.137332 -0.305415 0.065927 -0.170053 0.077390 0.157809 0.455986 -0.031606 0.162346 -0.047634 -0.135297 0.151232 0.038856 0.008622 0.094751 -0.082957 -0.297150 -0.194542 0.284951 0.142100 -0.170488 0.296086 -0.098053 -0.041694 0.376129 0.396626 -0.356303 0.047647 0.040708 -0.296530 -0.289863 -0.020591 0.070446 0.441412 0.232098 -0.104230 -0.385842 -0.089200 0.152029 -0.271503 0.363838 0.003417 -0.435944 -0.158347 -0.158353 0.017495 0.136860 -0.010871 -0.029656 -0.027383 -0.017686 0.023230 -0.065640 0.340652 0.478347 0.087812 0.365624 
动 0.143178 0.241597 0.116882 -0.193907 0.185831 -0.082949 0.152419 -0.028500 -0.264112 0.174936 0.107742 -0.067367 -0.156618 0.179645 0.103798 0.328199 0.247198 0.179941 0.154083 0.283049 -0.055428 -0.436665 0.100982 -0.356851 -0.048432 0.399506 0.124122 0.354935 0.070249 -0.119030 0.121932 -0.105097 -0.304282 0.045810 0.132127 -0.169517 -0.445769 0.023350 0.029832 0.006016 0.113662 0.210968 -0.346757 -0.021397 -0.430931 0.485802 0.324175 0.074982 0.170788 0.160283 -0.108675 0.276183 0.125388 -0.239445 -0.016872 0.238570 0.019343 -0.131893 0.126434 0.151540 0.468638 -0.089951 -0.276526 0.065251 
就 0.039928 0.250864 0.023973 -0.003035 0.113608 -0.049556 -0.006357 -0.125770 -0.167722 0.083920 0.014687 -0.192549 -0.072668 0.258563 0.061648 -0.090244 0.047601 -0.060488 0.210091 0.008060 -0.060231 -0.013335 0.200985 0.009666 -0.056118 -0.043860 -0.026220 -0.051116 0.117003 0.003488 -0.149135 -0.049705 0.010391 0.003029 -0.067934 0.074195 0.170871 0.009322 0.016893 0.077821 -0.156545 0.025280 -0.075312 -0.093021 0.179834 0.055563 0.111621 -0.061597 -0.169798 0.042427 0.127496 0.092684 0.066571 -0.057185 -0.106397 -0.096349 -0.041777 -0.045779 0.040612 0.010359 0.126217 -0.126157 0.064164 0.134073 
机 0.214482 0.094602 0.084717 -0.283933 0.320800 -0.063503 -0.082471 -0.029866 -0.399092 0.491835 0.193799 0.075896 -0.019738 -0.129556 -0.049669 0.000142 0.402492 0.100546 0.372471 0.094505 -0.093935 -0.305387 0.256271 -0.205550 0.204808 0.158831 0.269548 0.321930 0.004888 -0.316109 -0.009402 0.239515 -0.224175 -0.354207 0.510747 -0.126131 -0.263835 -0.048494 -0.001572 -0.137249 0.021125 0.140566 -0.051438 -0.232283 0.012103 0.201515 0.255359 0.125469 -0.223061 0.266082 0.057034 0.130205 0.008752 -0.231552 -0.132335 0.217285 -0.277542 0.007035 -0.050891 0.366830 0.073495 -0.152928 -0.462848 -0.231208 
个 0.197216 0.044096 0.137796 0.012241 0.321843 0.097033 0.061330 -0.157165 -0.046907 -0.209564 0.113639 -0.206927 0.075499 0.192205 0.138199 -0.086113 -0.111557 0.016554 0.173416 0.125731 -0.159805 0.098226 0.203682 0.218906 -0.092481 -0.009232 -0.121655 0.008406 0.064802 0.028205 -0.117072 -0.007934 0.180370 -0.132440 0.054818 0.015205 0.101617 -0.190221 -0.122249 0.210705 0.025374 0.355017 -0.083174 -0.206383 0.144896 -0.117247 0.035984 -0.057420 -0.159118 -0.034260 0.028059 0.044963 -0.006979 0.037361 -0.058049 -0.241899 -0.090783 -0.121406 -0.205064 0.104890 0.115372 -0.023255 0.339487 -0.041539 
1 0.180304 -0.185264 0.371898 -0.022495 0.035178 -0.171761 0.326550 -0.297511 -0.146191 0.248695 -0.195209 -0.007377 0.071583 0.038232 -0.029254 -0.218945 0.126657 -0.357028 0.111415 0.007142 0.219010 0.047107 -0.407325 -0.108814 0.184139 0.304309 0.196590 -0.394422 0.294579 0.059261 -0.068786 0.219132 0.383852 -0.404555 0.013973 0.229053 -0.116321 -0.147820 -0.204938 0.023231 0.350680 0.216282 0.236320 -0.310338 -0.044546 -0.175053 -0.195411 0.328742 -0.328720 -0.038830 -0.259833 -0.008105 0.039813 0.063324 0.141601 0.201904 0.003157 0.112158 0.029588 0.240654 0.177745 0.221888 0.104545 0.198444 
人 0.132180 0.060629 0.078868 -0.230396 0.241820 -0.236521 0.273669 -0.171814 -0.129938 0.034372 0.063909 0.078874 -0.049053 0.248258 0.165681 -0.390299 0.184150 -0.293337 -0.029942 -0.046525 -0.070841 -0.527177 0.323368 0.342565 -0.566438 -0.269589 -0.265556 0.189676 0.259710 -0.153896 -0.131895 0.184476 0.120057 -0.019555 0.109455 0.324625 -0.132196 0.143924 -0.264429 0.394193 0.217327 0.122203 0.043447 -0.334501 -0.278013 -0.032842 -0.035820 -0.309669 0.144655 -0.212238 0.015186 0.052250 -0.103433 0.043606 0.096425 0.272166 -0.105316 0.191951 0.001115 0.209164 -0.102874 -0.360838 0.219553 0.266055 
好 0.425680 0.191937 0.035337 -0.138666 0.082089 -0.079250 0.210589 -0.132771 -0.253621 -0.238191 0.059588 -0.139464 0.153481 0.042341 -0.002658 -0.229423 0.068017 0.031990 -0.140290 -0.097562 0.031812 -0.004640 0.103590 0.045353 -0.045597 -0.223585 -0.062551 0.273873 0.078515 0.017760 0.088475 -0.205572 -0.018191 0.065682 0.155515 -0.043210 0.111831 0.123431 0.034571 -0.039522 -0.021327 -0.209962 0.054138 -0.250608 0.169597 -0.160385 0.063343 -0.134089 0.009058 0.022522 0.095085 -0.030775 0.132677 -0.104151 -0.187093 -0.266358 -0.067806 -0.087717 0.110239 -0.039931 0.190493 -0.334088 0.070496 0.115826 
5 0.157698 -0.165569 0.182998 -0.016621 -0.112775 -0.192925 0.185396 -0.189302 -0.335272 0.262689 -0.132104 0.040740 0.190886 0.306487 -0.112954 0.035629 0.125236 -0.189169 -0.110424 0.123990 0.072400 -0.012112 -0.148565 -0.138647 -0.096351 0.304889 0.341364 -0.232291 0.334059 -0.178297 -0.126735 0.420167 0.318374 -0.211761 -0.023890 0.108386 -0.044138 -0.166361 -0.062597 -0.085070 0.321458 0.261667 -0.154166 -0.481345 -0.125484 0.104850 -0.163309 0.280203 -0.128339 -0.080737 -0.018042 -0.016397 0.003412 0.107342 0.186561 0.209587 0.071681 -0.000119 0.059551 -0.043790 0.289138 0.408518 0.054841 0.325520 
这 0.298711 0.046774 0.076101 -0.058401 0.429749 0.041884 0.106242 -0.396132 -0.007589 -0.142450 -0.108768 0.191203 -0.025882 -0.062127 -0.031480 0.024960 -0.058663 -0.340766 0.113023 0.174095 0.219538 0.045233 0.241014 0.023052 0.049584 0.006773 0.264044 -0.026127 0.046154 0.132602 -0.119127 -0.147519 -0.014893 -0.056583 -0.063110 -0.101569 -0.083163 0.227711 0.156109 0.279697 -0.168500 0.231602 0.027818 0.164570 0.342774 -0.060378 -0.161021 -0.193540 -0.179851 -0.016650 0.052011 -0.023323 0.080772 -0.005561 -0.247182 0.031331 -0.156866 0.174052 -0.167542 0.041812 0.103118 -0.298977 0.001117 0.104582 
没 -0.029592 0.125909 -0.048598 -0.172327 0.255268 0.246422 0.097957 -0.047600 -0.452949 0.157404 0.095452 -0.365381 -0.094863 0.130920 -0.026642 0.065583 0.107360 -0.249432 0.128105 0.030095 0.121874 0.210537 0.159956 -0.056873 -0.410941 0.215907 -0.148883 -0.055416 0.021757 -0.126109 -0.101234 -0.028717 0.138088 -0.154906 0.055702 -0.215087 0.355680 0.035285 0.069243 0.053902 -0.056712 0.169005 -0.150933 0.086132 -0.140809 -0.081385 0.089276 -0.199731 -0.236385 0.020686 0.005189 -0.133852 0.146309 -0.287589 -0.056340 -0.087694 -0.144830 -0.034829 0.083916 -0.083339 -0.007074 -0.163953 -0.139221 -0.102215 
森 -0.100322 0.116006 0.081573 -0.090101 0.068211 -0.177541 0.433105 -0.213927 -0.172602 0.064344 -0.004945 0.129776 -0.145348 0.410903 0.078470 -0.425347 0.304602 -0.347292 -0.098480 -0.105085 -0.030464 -0.435930 0.240944 0.194317 -0.553550 -0.129398 -0.165311 0.207671 0.490105 -0.120548 -0.105724 0.055978 0.071361 -0.129765 0.147480 0.268377 -0.086976 -0.093058 -0.156550 0.018449 0.234789 -0.172581 0.092552 -0.432490 -0.346912 0.112054 -0.047490 -0.341410 0.284879 -0.071465 -0.021623 -0.226638 -0.148999 0.090965 0.042601 0.170520 -0.237210 0.249467 0.126055 0.344164 -0.074055 -0.373683 0.404700 0.054521 
也 0.103174 0.226103 0.076518 0.004402 0.075854 -0.005839 0.099315 -0.122283 -0.274658 0.107538 0.045317 -0.100218 0.023228 0.008651 0.164538 0.003647 0.071892 -0.138668 0.121411 -0.044753 0.103390 -0.022302 0.066500 0.102144 -0.022243 -0.087020 0.023223 -0.067830 0.123200 0.050724 -0.066573 -0.112726 0.121208 -0.088829 -0.036669 0.009949 -0.016206 0.053407 -0.031895 0.139221 -0.032511 -0.065041 -0.042609 -0.111434 0.218819 -0.039593 0.053340 -0.043534 -0.126613 0.042346 0.021329 -0.179206 0.080185 -0.103086 -0.094789 -0.035118 0.038330 -0.062124 0.105624 -0.054654 0.015392 -0.069735 -0.017106 0.225394 
还 0.047017 0.093171 0.028389 -0.013362 0.187690 0.007345 0.250563 -0.021642 -0.265871 0.061041 0.026885 -0.026058 -0.025080 0.132798 0.008255 -0.070140 0.096896 -0.092559 0.051766 0.057656 -0.054068 -0.011484 0.190521 0.142433 -0.122695 -0.164668 0.006095 -0.023569 0.148562 -0.043459 -0.005894 0.003013 0.027479 -0.045385 -0.054781 -0.041356 0.164759 -0.059495 0.042211 0.048804 -0.054713 0.004168 -0.118265 -0.101624 0.101916 -0.051062 0.047844 -0.071197 -0.102508 0.134869 0.197377 -0.104666 0.033400 -0.088549 -0.147576 -0.094525 -0.031191 -0.055762 -0.149757 -0.135482 0.152248 -0.074654 0.038725 0.204088 
要 0.075004 0.320700 -0.028024 -0.157236 0.118996 -0.056064 0.093568 -0.020471 -0.197248 -0.081093 -0.051913 -0.188029 -0.049839 -0.108737 -0.159982 -0.060570 0.017462 -0.256259 0.125712 0.066356 -0.138889 -0.020260 -0.132182 0.097618 -0.194964 0.085664 -0.056452 -0.014977 0.160866 0.101795 0.174545 0.236885 0.061653 0.371547 0.118594 -0.087504 0.070026 0.013482 -0.037678 0.256188 -0.094125 0.069210 0.106986 -0.225715 0.107570 0.077776 0.275989 0.117897 -0.095599 0.059673 0.132809 0.261120 0.059606 0.000838 -0.079454 -0.273687 -0.217700 -0.157191 0.124411 -0.033346 0.339771 -0.161192 0.062103 0.038030 
多 0.241450 -0.011549 -0.084665 -0.171958 0.047345 0.059905 0.073296 -0.226353 -0.400111 0.190251 -0.388618 -0.016504 0.192130 0.105334 0.059520 0.004990 0.033608 -0.179932 -0.000951 0.046560 0.155579 0.223848 -0.044499 0.205641 -0.050166 -0.156162 0.058302 0.081894 0.240635 0.212978 0.023819 0.084318 0.150302 0.131794 -0.212006 0.199849 0.061432 0.277912 -0.072718 0.032431 -0.101541 -0.093226 -0.035942 -0.313154 0.368610 -0.335913 0.025351 0.081126 0.193982 0.248512 0.128937 -0.110006 0.129580 0.056229 -0.353912 -0.024157 0.231570 -0.007297 -0.227677 0.114102 0.120080 0.011839 0.034360 -0.111731 
大 -0.111463 0.156090 -0.268894 -0.236651 -0.019329 -0.236895 0.182983 -0.075172 -0.092950 -0.043692 -0.014761 -0.153917 0.267838 -0.251409 0.039656 0.051151 0.063783 0.182115 -0.164878 -0.070853 0.141208 -0.106913 0.273342 0.020706 -0.185258 0.104558 -0.050052 -0.014212 0.101007 0.523436 -0.111066 -0.169400 0.089298 -0.353642 -0.028192 -0.105924 0.182835 -0.082442 0.010664 0.098666 0.225605 0.040473 0.148748 -0.384831 0.055403 -0.189055 0.255064 -0.144065 0.072173 0.344301 0.112943 0.016054 0.107861 -0.211978 -0.284869 -0.146367 -0.002583 0.238397 0.047760 0.277922 0.212491 -0.170401 0.104310 0.046316 
在 0.229544 0.182413 0.292380 0.200412 0.278793 -0.143110 0.242728 -0.080849 0.000716 0.091000 0.150175 -0.119932 0.039299 0.049648 -0.032907 0.081742 -0.081481 -0.343359 0.226486 -0.142152 -0.263736 0.066265 0.270490 -0.256141 0.008336 -0.106160 0.032404 -0.232656 0.049090 0.065412 -0.053653 -0.157960 0.167738 0.029674 0.114532 -0.256400 0.067928 -0.089385 0.034256 -0.124975 0.347432 0.111061 -0.161598 -0.126853 0.153172 -0.291059 -0.120251 -0.001127 -0.140203 0.198841 0.024577 0.051875 0.096768 0.007739 0.010484 -0.003352 0.190197 0.086138 -0.085337 0.266977 -0.016917 -0.161311 0.031607 0.038242 
速 0.204471 0.431032 -0.040249 0.225805 0.351079 0.171964 0.547905 0.018363 0.190260 0.590236 -0.283164 -0.541340 -0.061614 -0.109017 -0.299576 0.009622 0.640146 0.171822 0.375673 0.280265 0.607306 0.056859 -0.084597 -0.194946 0.215894 -0.006241 -0.009297 -0.291719 0.306769 0.210948 0.033505 -0.109557 -0.012650 0.013506 -0.187828 -0.153909 -0.367052 -0.458915 -0.445819 0.111219 -0.100008 -0.302552 0.071621 0.123739 -0.118784 0.105940 -0.097286 0.092009 0.243612 0.094933 -0.099535 0.282640 0.001924 -0.022872 -0.178673 -0.182793 -0.049896 0.089256 0.461732 0.077918 0.170722 0.307104 0.090420 -0.117600 
都 0.252466 0.060780 0.076178 -0.028982 0.129798 0.021676 0.067407 -0.159559 -0.028871 0.055509 0.031406 -0.199695 0.047311 0.106948 0.161317 0.087723 0.028473 -0.147236 0.072378 0.153622 0.109323 0.166113 0.247091 0.086673 -0.170587 0.047329 -0.056138 -0.068956 0.067203 -0.004523 -0.089100 -0.058063 -0.036630 -0.113545 -0.008199 -0.099003 0.113112 0.136406 -0.175914 0.050039 -0.058779 0.054087 -0.156142 0.010698 0.168087 0.080650 0.018370 -0.005540 -0.091542 0.203281 0.038997 0.008572 0.099178 -0.067662 -0.181983 0.027983 0.041960 0.077550 -0.071525 0.102604 0.034980 -0.263853 -0.027230 0.094624 
比 0.328273 -0.098061 -0.163210 0.146874 -0.044109 0.121542 0.354313 -0.341374 0.263682 -0.035936 -0.102156 -0.043725 0.353498 0.091544 0.026894 -0.225156 0.301858 0.089981 0.053415 0.056805 0.100018 -0.003568 0.424619 0.160280 -0.215023 -0.221742 0.117818 0.143378 0.257757 -0.108872 0.263156 -0.202853 0.106720 -0.251348 0.122772 0.296315 0.017993 -0.224940 -0.007368 0.030511 0.161351 -0.037571 -0.229603 -0.483598 0.073909 -0.028645 0.097585 -0.286708 0.250791 0.002646 0.166117 -0.087672 -0.114167 -0.033264 -0.122377 -0.042283 0.066608 -0.305693 0.349960 -0.008661 -0.031789 -0.188096 0.109596 0.108153 
上 0.284511 0.176998 0.154360 0.467280 -0.102114 -0.172455 0.182350 -0.081224 -0.021431 0.195513 0.005869 -0.207396 0.010672 0.100382 -0.039842 0.013655 -0.041974 -0.139453 0.343534 -0.016521 0.027357 -0.032454 0.255146 0.053927 0.118485 0.098368 0.059944 -0.379507 -0.009501 0.117977 -0.098180 0.052423 0.040961 0.065556 -0.054450 0.247150 0.049048 0.144406 -0.051559 -0.020885 -0.096613 0.052954 -0.292608 -0.031700 -0.081845 -0.058485 -0.043166 0.080802 -0.021858 0.032123 0.123883 0.164671 0.128676 -0.103130 -0.045137 -0.072602 -0.004884 -0.162192 -0.003389 0.098647 -0.158921 0.072764 0.172074 0.085730 
以 -0.029001 0.189339 0.248906 0.161232 0.151396 -0.216022 0.157236 0.041013 0.037803 0.084846 0.062064 -0.056430 0.231281 -0.257799 0.091906 -0.491192 -0.030560 -0.202154 0.435050 0.237055 -0.316622 -0.405181 0.106265 0.066035 -0.192749 0.145536 0.046330 -0.230155 0.352179 0.122526 -0.093682 0.190606 -0.008465 0.123491 -0.187333 -0.262114 0.217609 0.070576 0.090978 0.062210 -0.493127 -0.026851 -0.115235 0.157833 -0.039222 0.049741 0.102878 0.123751 -0.002628 -0.115157 0.014367 0.091540 0.039585 0.005330 0.184777 -0.120366 0.321918 -0.278248 -0.288247 0.052137 -0.209305 0.210932 -0.104514 0.633400 
你 0.114590 0.341719 0.113588 0.144920 0.342386 0.248235 0.046107 -0.100648 -0.191746 0.009723 -0.339958 -0.024795 0.041231 -0.109775 -0.134713 -0.223185 -0.118570 -0.062042 0.333590 -0.124246 0.029699 0.115818 0.208974 0.186869 -0.142710 0.152346 -0.102443 -0.037535 0.089906 -0.045013 -0.159657 0.159507 -0.085743 0.062016 0.055298 -0.201924 -0.092707 0.161362 0.082281 0.276974 -0.217587 -0.020534 -0.125181 -0.097893 0.063095 0.030025 0.083454 -0.123401 -0.215170 -0.224762 0.135610 -0.092347 0.082332 -0.152900 0.083419 0.017618 -0.058724 -0.187313 -0.153874 -0.180890 0.180812 -0.347759 0.104785 0.240641 
用 0.203757 0.172917 -0.008315 -0.099584 -0.200950 -0.028429 0.299646 -0.188639 -0.193964 0.182688 0.207173 -0.097967 -0.000688 0.126826 0.156553 0.270412 0.025923 -0.029337 0.154887 -0.091765 -0.069201 0.075054 0.162010 -0.072843 0.054854 -0.024035 0.298688 -0.320167 0.031904 -0.198070 0.250370 0.051646 -0.283963 0.162718 0.022994 -0.362015 -0.084891 -0.023366 0.070376 0.023337 0.080583 -0.128837 -0.103338 -0.188519 -0.035786 0.133841 -0.047962 -0.119991 -0.253558 0.006683 -0.008113 0.177463 0.010897 -0.048842 -0.192939 -0.123908 0.194067 0.104663 -0.174165 -0.087841 -0.209381 -0.015134 -0.050872 0.112098 
高 0.198005 0.234009 -0.100094 0.060290 0.140508 -0.125401 0.394867 -0.121127 0.167525 0.073384 -0.063776 -0.086793 0.275078 -0.170778 -0.251675 0.209672 0.058398 0.108463 0.291578 0.047625 0.363737 -0.134475 -0.104103 -0.063346 -0.260245 -0.210413 0.304495 -0.069871 0.245140 0.073833 0.422980 0.012344 0.044219 -0.164688 -0.170722 0.114716 0.101373 0.040342 -0.226442 -0.098517 -0.032754 -0.113441 0.032112 -0.104184 0.245391 -0.093658 0.106191 -0.195953 0.319332 0.189186 -0.146496 0.135618 0.215218 0.198950 -0.140333 -0.337418 -0.179998 -0.275478 0.152424 0.172358 0.181733 0.027599 -0.034410 0.089732 
林 -0.030093 -0.090705 -0.051383 -0.134001 0.025095 0.096915 0.543823 0.103381 0.008895 -0.175672 0.053700 -0.110358 -0.071040 0.510358 0.132976 -0.384589 0.434475 -0.253643 -0.374959 -0.101978 0.080360 -0.702791 0.402757 0.193536 -0.579017 -0.276159 -0.312938 -0.018258 0.367607 -0.099890 -0.382133 0.078175 0.481777 -0.161218 0.101360 0.242371 -0.006359 0.008615 -0.241198 0.293262 0.055892 -0.132661 -0.295341 -0.591681 -0.172012 -0.153418 -0.261819 -0.131438 0.163457 -0.373979 0.044486 -0.051601 -0.115693 -0.006091 -0.009904 -0.004852 -0.179123 0.262406 0.380615 0.198832 -0.320955 -0.181850 0.393056 0.087094 
发 0.443677 0.178377 -0.116430 -0.068378 0.270673 0.169665 -0.029798 0.166629 -0.064228 0.327235 0.151392 0.116099 -0.065685 0.088406 -0.000777 0.033326 0.280936 -0.095312 0.480761 0.130934 -0.097235 -0.395688 0.263416 -0.485435 0.160109 0.048913 0.223688 0.344412 -0.252885 -0.222171 -0.033240 -0.226994 -0.375775 -0.329935 0.483905 -0.176865 0.062054 -0.132170 0.094304 -0.182740 0.164844 0.300913 -0.160665 0.063389 -0.138124 0.235761 0.332800 0.234517 -0.149161 0.262408 0.020627 0.247293 0.099836 -0.255421 -0.245136 0.182658 0.001584 -0.100479 0.340990 0.416854 0.242869 -0.051611 -0.288816 -0.061288 
价 0.507465 0.182170 -0.519038 0.185438 0.020792 0.296887 0.380610 0.080785 0.217589 -0.106641 -0.297719 0.243366 0.364192 0.236501 0.161800 0.340893 -0.095895 -0.584712 0.178690 0.021597 0.179874 -0.122699 0.006063 0.570265 0.010869 -0.162367 0.246714 -0.149577 0.394261 0.311903 0.201478 0.138655 0.305656 -0.297635 -0.041513 0.037787 -0.048078 0.067008 0.205478 0.480202 0.067460 0.021210 -0.175851 0.092893 0.497660 -0.307090 0.112626 -0.093984 0.287667 0.051561 0.311852 -0.148162 -0.052541 0.012071 -0.204784 0.022672 -0.054374 -0.344607 -0.599776 -0.182515 -0.328146 0.146832 0.338767 0.053613 
能 0.404593 -0.064919 0.202153 0.124734 -0.021694 0.132159 0.319902 -0.079848 -0.146309 -0.148137 -0.255921 0.073356 0.036844 -0.082501 0.032507 -0.141782 0.199943 0.044716 -0.025346 0.067978 0.119728 -0.142869 0.088496 -0.036141 -0.072587 0.135818 0.206042 0.015582 0.115780 0.001166 -0.088120 -0.025921 0.124452 0.107806 -0.116118 -0.233324 0.078751 0.262087 0.266392 0.006628 -0.186529 -0.216572 -0.224863 -0.106052 0.046258 0.029902 0.307123 -0.202538 0.151513 -0.186047 -0.056738 0.110459 0.054145 -0.248018 -0.200260 -0.326364 0.051719 -0.294911 -0.034116 -0.034990 -0.127931 -0.071726 -0.086189 0.280889 
后 -0.178741 0.264898 0.170320 -0.233968 0.065353 -0.168711 0.103419 0.239324 -0.327771 0.322269 -0.066702 -0.442644 -0.137388 0.107795 0.148215 -0.037866 0.054554 0.047530 0.206121 0.121036 0.098785 -0.244508 0.192138 0.146209 0.075033 -0.099731 -0.076027 -0.163664 0.293533 0.002373 -0.052641 -0.385068 0.060503 0.032362 0.283984 -0.272943 0.323746 -0.142501 0.422660 -0.203877 -0.087346 0.041886 0.015085 0.023114 0.011975 -0.146154 0.012238 0.131630 0.155719 0.297808 0.235703 -0.223512 -0.378035 0.114945 0.033072 -0.330062 -0.014284 0.034780 -0.215998 0.537836 -0.249721 0.242501 0.210034 0.200535 
力 0.428027 0.103435 0.071430 -0.082639 0.198633 -0.100573 0.493035 0.183452 -0.419356 -0.212262 -0.333939 0.153890 0.074922 0.228070 -0.165414 0.172751 0.150180 0.058414 0.011081 -0.129778 0.486711 -0.017738 0.227294 -0.341078 -0.264852 0.126106 0.093017 0.056466 0.174175 -0.183029 -0.139383 0.272699 -0.409306 0.189487 0.088201 0.075358 -0.244003 -0.068544 -0.100264 -0.149216 0.251606 0.122887 -0.196546 0.094479 -0.197888 0.274443 0.392656 -0.067601 0.310308 0.173322 0.155808 0.289500 0.088915 0.036750 -0.282752 -0.106329 -0.062662 -0.079165 -0.025899 -0.113326 0.062679 0.064332 -0.184401 0.272285 
时 0.361222 -0.183945 0.359837 0.098302 0.132329 0.464473 0.229165 -0.022514 0.181221 0.340094 0.110800 -0.273267 -0.235957 0.088913 0.190024 0.393802 0.047199 0.182561 0.146083 -0.065872 0.042539 -0.015327 -0.009080 0.042647 -0.160876 -0.243153 -0.013413 -0.590089 -0.084395 0.597628 -0.217578 0.057704 0.244399 -0.090775 -0.162661 -0.018588 -0.299552 -0.335597 0.347474 -0.275784 -0.433103 0.073964 -0.136158 -0.244546 0.144693 0.252459 0.082168 -0.227549 -0.204970 0.377542 -0.252465 -0.146865 -0.107022 -0.113221 0.353483 -0.071715 -0.274863 0.065506 0.357581 0.392908 0.327482 -0.021982 -0.104962 0.157608 
看 0.161381 0.219724 0.051989 0.341483 0.104286 -0.033114 0.088295 -0.177077 -0.207818 0.042429 -0.158741 0.054849 0.145516 -0.035850 -0.054661 -0.033068 -0.012386 -0.062137 0.252927 0.009452 -0.045984 0.017122 0.048383 0.352347 0.148163 -0.042265 -0.209605 0.150755 -0.320128 -0.153645 -0.148846 -0.143368 0.220897 0.296414 0.250592 -0.259446 0.058953 0.325525 0.199552 0.116101 -0.034605 0.069688 -0.145093 -0.137977 0.005331 -0.275351 -0.030359 0.171616 0.095167 -0.232041 0.202387 -0.058203 0.133894 -0.152674 0.043883 -0.165208 -0.076985 -0.186944 0.057989 -0.038042 0.253550 -0.547642 0.308273 0.079776 
点 -0.013075 0.287789 0.045329 -0.362392 0.130298 -0.038439 -0.128133 -0.000579 -0.156544 -0.099873 -0.172338 -0.314287 -0.063042 0.057535 0.205182 0.006004 0.381411 0.010589 0.140270 -0.104276 -0.391626 0.160547 0.208247 0.036354 -0.417868 -0.021273 0.166512 -0.087277 0.042592 0.144943 -0.190852 -0.120618 0.207619 -0.265465 -0.224497 0.165414 -0.109386 0.178357 -0.291851 0.059459 -0.005242 -0.009311 -0.302572 0.032612 0.038725 -0.117315 0.256733 -0.123426 0.183461 0.267691 0.110446 -0.036430 -0.008895 0.139151 -0.202113 -0.065222 0.014507 -0.075370 0.017830 -0.233879 0.154878 -0.263263 0.239391 0.096936 
可 -0.081576 -0.050567 0.293088 0.343900 0.294155 -0.273720 0.561467 -0.032548 -0.156536 0.019722 -0.104575 -0.041813 0.035031 -0.078408 0.046101 -0.064935 -0.032687 -0.130014 0.153672 0.166765 -0.541863 -0.145440 0.240345 0.116155 -0.032615 0.090895 0.309248 -0.404577 0.086817 -0.034108 0.100457 0.180161 -0.069711 -0.097039 -0.091789 -0.276705 0.266521 0.069570 0.395600 -0.014327 -0.076186 -0.184100 -0.308103 0.009475 0.044168 -0.101524 0.011260 0.085747 0.120907 0.159726 -0.045033 0.011277 0.041142 -0.227595 -0.104942 -0.334449 0.451013 -0.111953 -0.306767 0.104257 -0.274162 -0.230384 -0.054165 0.235977 
过 0.216035 0.285083 -0.005399 0.019302 0.112636 0.113900 0.179805 -0.268270 -0.110714 0.208862 -0.191758 -0.339364 0.097458 0.019172 0.112173 0.020812 -0.058585 -0.007246 -0.040785 -0.051008 0.190692 -0.196548 -0.065893 -0.038614 -0.099737 -0.045703 -0.029151 -0.078695 -0.015630 -0.204287 -0.025198 -0.230250 0.297685 0.130132 -0.046941 0.052248 0.014537 -0.033520 0.120124 0.063853 0.155855 -0.058644 -0.046597 -0.136838 -0.021254 -0.059560 -0.123011 0.021685 -0.074668 0.173214 -0.184847 -0.000228 0.116584 0.026871 -0.064132 -0.223944 -0.007750 -0.214049 0.096284 0.096744 -0.068532 -0.313253 -0.163387 0.042756 
和 0.253724 0.123569 0.036727 -0.036233 -0.181511 0.179483 0.453036 -0.091922 -0.008143 -0.003861 0.277431 -0.060697 0.054785 0.116290 -0.079742 0.127397 -0.036175 0.021084 -0.039128 0.238848 -0.110478 -0.132695 0.212611 0.174967 0.101793 0.167226 0.007395 0.144683 -0.033524 0.112211 -0.218569 -0.058861 0.272176 -0.191701 -0.029073 0.131280 0.271920 -0.217355 -0.176055 -0.069501 0.184104 0.015999 -0.356140 -0.245149 -0.006560 0.239316 0.155232 0.035291 0.249675 0.126331 -0.013267 -0.057335 -0.218147 0.112102 -0.091905 -0.076719 -0.141354 0.005131 0.098600 0.346752 0.150088 -0.049582 -0.040381 0.158764 
开 0.224960 0.447130 0.122733 0.136551 -0.011943 -0.098108 -0.135008 -0.405446 -0.134880 0.244830 -0.122298 -0.437615 -0.122231 0.124969 0.129586 -0.167583 0.234813 -0.100995 0.101475 -0.152533 0.074452 0.095623 -0.255924 -0.243923 -0.115635 -0.107630 -0.302381 -0.066587 -0.098223 -0.019720 0.045687 -0.447719 -0.109229 0.119881 0.046308 0.082225 0.100321 0.181479 0.180402 0.232779 -0.002759 -0.064055 -0.230760 -0.093689 0.090819 -0.198143 -0.186479 0.193808 -0.205802 0.136213 -0.135372 -0.242931 0.146805 -0.140567 -0.202120 -0.043352 -0.227033 0.180386 -0.048898 0.278323 0.031655 -0.013331 0.120985 0.395069 
耗 0.149137 -0.069177 0.264101 -0.078098 0.256467 0.042173 0.078283 -0.053395 0.016730 0.426775 -0.155721 -0.001655 0.083172 -0.441448 -0.362770 -0.017092 0.194097 0.156836 0.477167 -0.116553 0.197238 0.304579 -0.180652 0.045487 -0.230354 -0.214072 0.042911 -0.095950 0.405793 -0.181885 0.056110 0.203019 0.397780 -0.538330 -0.316451 -0.306007 -0.679647 -0.083989 -0.182051 0.093194 0.265401 0.250897 -0.008694 -0.308112 0.246667 -0.379216 0.021557 0.230042 0.213613 -0.054611 0.040162 0.220028 -0.134759 -0.033559 -0.304893 0.026220 -0.078145 0.175451 0.397004 -0.275093 -0.199807 0.126780 -0.396445 0.185369 
？ 0.335145 0.098166 -0.236149 0.037481 0.372340 0.387007 0.101168 -0.154643 -0.246126 0.145729 -0.281267 0.212928 -0.240447 -0.238605 0.152948 0.089476 -0.079173 -0.135687 0.136543 0.244921 0.147401 0.180443 0.196867 0.017451 -0.057003 0.350114 0.231928 0.126264 -0.070966 -0.458720 -0.288380 0.182425 0.155770 0.093472 -0.242327 -0.175608 -0.036644 -0.128275 -0.022983 0.168489 -0.079212 0.140423 -0.027995 -0.254610 0.378197 -0.109905 -0.115968 -0.308393 -0.071065 0.060939 0.118568 -0.320041 -0.235911 -0.215218 -0.348922 -0.083815 0.104390 -0.148618 -0.246275 0.129674 0.108187 -0.230164 0.023157 0.207810 
么 0.292276 0.140328 -0.438310 0.094404 0.142618 0.221199 0.393203 -0.049302 -0.138253 -0.066088 0.010328 -0.362164 0.048330 -0.008191 0.371639 0.158297 0.121147 -0.266760 0.145321 0.111059 0.184224 0.661352 0.367645 0.059384 -0.429612 0.402556 -0.245601 0.273348 -0.129427 -0.425937 -0.230008 0.071555 0.127063 0.053123 0.052191 -0.190160 0.102106 0.017600 0.102973 0.280516 -0.239925 0.525294 0.217649 0.085269 0.392141 0.148886 0.227275 -0.009275 -0.395954 -0.301954 0.281756 -0.003056 -0.028834 -0.279542 -0.582590 0.057817 -0.209545 -0.084284 -0.162775 -0.237761 0.071222 -0.213792 0.056951 0.179286 
里 0.139509 0.103106 0.254577 0.307164 0.272348 0.107380 -0.411406 -0.295484 -0.495904 0.585780 -0.190880 0.206022 0.175886 -0.030569 -0.119822 -0.165956 0.039079 -0.096678 0.418078 0.033248 0.019705 0.369222 -0.189380 0.134149 -0.194752 0.071950 -0.178296 -0.072509 0.185472 0.004217 -0.108210 -0.148698 0.436056 0.097821 0.004641 -0.391787 0.081404 -0.247727 -0.222563 -0.114975 0.144664 0.542901 0.192872 -0.512330 0.109634 -0.066269 -0.301757 0.027621 0.154690 0.444908 -0.349715 0.051218 -0.066210 -0.005817 -0.042323 0.070252 0.209157 -0.287501 -0.435806 0.358576 -0.163258 0.225720 -0.043325 -0.268772 
换 0.113851 0.259948 -0.155853 -0.263189 0.029346 -0.000156 0.141189 -0.239119 -0.312439 0.007926 0.252564 -0.308977 -0.143632 -0.078821 0.349292 -0.062508 0.043020 0.180398 0.257145 -0.026283 -0.073842 -0.065671 -0.250372 0.211306 0.495935 -0.015407 0.112050 0.004944 0.110948 -0.081297 -0.163683 0.167783 0.030309 0.254725 0.256001 -0.104444 0.114029 -0.065388 0.105986 -0.231765 -0.125355 -0.018153 -0.196310 -0.296888 -0.051971 -0.022639 -0.098291 0.276800 -0.271539 0.147303 -0.017647 0.291625 0.010101 0.023177 0.043828 -0.376249 0.200656 0.025383 -0.212329 -0.012843 0.015935 -0.048559 0.020446 -0.171631 
下 0.059062 0.333779 0.255750 0.266750 0.135138 -0.114231 -0.035605 -0.067838 -0.192978 -0.119949 -0.134398 -0.301843 -0.014357 -0.137476 0.210521 -0.000988 -0.048518 0.158039 0.565148 0.162913 -0.051386 0.163064 0.272488 0.038426 0.067181 0.170950 0.287861 -0.153693 0.038108 0.164265 -0.065041 0.045859 0.035043 0.310927 0.040743 0.053664 -0.026448 0.243633 0.055939 0.059150 0.124240 0.120315 -0.163873 0.140987 -0.087434 0.034824 -0.215558 -0.061337 -0.084027 0.044335 -0.056572 -0.074741 -0.102285 0.072659 0.117621 -0.318627 -0.235943 -0.383228 0.041827 0.361764 -0.257176 0.045952 0.092742 0.038709 
款 0.217228 -0.342079 0.002125 -0.177897 0.374023 -0.224539 0.447204 -0.075092 -0.183201 0.211705 0.207772 0.002580 -0.161193 0.091590 0.376404 0.059535 -0.307737 -0.140469 -0.132150 -0.043736 0.049824 -0.092455 -0.086921 -0.551178 0.078110 0.088516 -0.029274 -0.163022 0.295794 -0.018976 -0.315107 0.177065 0.366791 -0.066577 0.321971 0.071594 0.247064 0.101327 -0.003490 0.142159 0.584944 0.274676 0.085504 -0.430593 0.038831 -0.039038 0.024890 0.177242 -0.182847 -0.460661 0.068953 -0.367401 -0.024474 0.219625 0.100480 0.220855 0.242751 -0.291589 -0.026087 0.370127 0.179776 -0.108341 0.589005 0.157429 
4 0.194181 0.283825 0.109483 0.173191 -0.227313 -0.012851 -0.130971 -0.171759 0.159129 0.261401 -0.170519 -0.102312 0.486342 0.159342 0.070379 -0.131049 0.070010 -0.432587 0.105432 0.297368 0.224550 0.008495 -0.160018 0.136855 0.280879 0.203312 0.007507 -0.338015 0.265308 0.178560 -0.146946 0.105702 0.277750 -0.387690 0.337772 -0.000968 -0.150484 0.032468 0.174987 -0.042865 0.369876 0.131637 0.019025 -0.334392 0.101900 0.210507 -0.107775 0.214497 -0.241894 0.042942 -0.058550 -0.171593 -0.309603 0.084984 0.148580 -0.225932 0.107352 0.038589 -0.379143 -0.252829 0.186272 0.020881 -0.379636 0.124836 
说 -0.020706 0.198070 -0.168311 0.089395 0.068989 0.157368 0.063332 -0.320319 -0.283074 0.052681 0.016421 0.008162 0.011648 0.087893 0.010755 -0.009470 -0.001673 -0.114528 0.340758 0.077820 0.100847 0.201570 0.037171 0.102043 0.000603 0.277718 -0.111672 0.133511 -0.071270 0.058038 0.082343 -0.168710 0.219559 -0.126830 0.337944 -0.089028 -0.027100 0.159387 0.241349 0.315503 -0.039560 -0.160313 -0.162695 -0.088909 0.025919 -0.014198 0.183108 -0.092598 -0.321030 -0.365254 0.252531 0.166025 0.199406 -0.207004 0.103684 0.121525 0.072851 -0.220606 0.017478 0.006529 0.009288 -0.330903 -0.052558 0.008447 
很 0.107226 0.008461 0.016917 -0.112340 0.110740 -0.045190 0.251351 -0.219959 -0.341364 0.013398 -0.036922 -0.028315 0.189112 0.223101 0.182316 -0.049937 0.181901 -0.159770 -0.043049 -0.240168 0.051067 0.228560 0.203777 0.079641 0.028953 -0.237302 0.007050 0.148502 0.051679 0.224530 0.177189 -0.175368 0.043162 -0.151412 -0.228074 0.013958 -0.330869 0.201261 -0.080718 0.237989 -0.142584 -0.237065 0.041046 -0.096577 0.051525 0.016064 0.067920 0.071328 0.185668 0.210624 0.155475 -0.147184 -0.189849 -0.104355 -0.282754 -0.005078 -0.103918 -0.131683 -0.122935 0.004361 0.111955 -0.231266 -0.147083 0.189800 
性 0.557096 0.092200 0.152766 0.003294 -0.238996 -0.090977 0.780022 -0.122988 0.142327 -0.103135 -0.243160 0.299715 -0.314686 0.169718 0.192111 -0.208165 0.077408 -0.052881 -0.012696 0.093566 -0.026648 0.195014 -0.002755 0.382862 -0.452701 -0.171714 0.219607 0.132074 0.242864 -0.121969 0.237803 -0.281731 -0.082542 -0.224747 0.188377 -0.177484 0.148863 -0.041528 -0.092474 -0.204149 0.008016 -0.285287 -0.359061 0.015722 -0.018741 0.098779 0.543236 -0.282296 0.302884 -0.039748 -0.057443 0.037972 -0.129860 -0.114735 0.109201 -0.271734 -0.194163 -0.077208 0.096135 -0.315641 -0.381241 -0.332488 -0.402049 0.365714 
！ 0.108543 0.172459 -0.058526 -0.133899 0.098446 0.423919 0.052196 -0.126731 -0.534307 -0.126751 -0.147233 -0.139106 -0.029717 0.373137 0.088088 -0.003071 -0.243663 -0.238417 0.279910 -0.194411 0.215578 -0.391918 -0.213424 -0.073865 -0.014834 0.198891 -0.003208 0.108785 -0.172201 0.050227 0.174420 0.091554 -0.098876 -0.164904 0.016209 -0.128800 0.010286 -0.074226 -0.143871 0.100352 0.092576 -0.274911 0.076698 -0.354422 0.154413 -0.234179 -0.137850 -0.051132 -0.012169 -0.192746 0.124214 -0.098306 0.159842 0.040917 -0.005619 -0.267621 -0.009560 0.169759 -0.080966 0.130547 0.128209 -0.195742 -0.021740 0.336039 
来 -0.106022 0.256669 0.072080 0.228945 -0.092038 -0.175528 -0.082263 -0.435807 -0.033920 0.138045 -0.429563 -0.223221 -0.038655 0.235480 0.174993 0.192519 -0.030616 0.137859 0.434431 0.063044 0.148017 0.306603 0.158595 -0.233386 0.101709 -0.017235 -0.103763 0.253152 0.236403 -0.026787 -0.022662 0.011735 0.077200 0.035053 0.102769 0.111097 0.147824 0.213700 0.166797 0.345834 -0.085896 0.094328 -0.028206 -0.214229 -0.067264 0.233786 -0.009990 -0.257277 0.060954 -0.100813 0.005341 0.255451 0.026205 -0.113104 0.065439 -0.207085 0.046170 -0.308736 0.061138 0.304173 -0.086598 -0.336415 -0.026367 0.126039 
格 0.556223 0.187142 -0.337263 -0.100128 0.101770 -0.057436 0.344430 -0.151201 -0.100174 -0.161679 -0.443020 0.617445 0.438866 -0.114014 -0.009721 0.049920 -0.061393 -0.722283 0.451969 -0.074891 -0.076935 -0.073972 -0.023005 0.413451 -0.027917 -0.301096 0.258329 0.047358 0.377001 -0.170866 0.256681 0.366352 0.137052 -0.143940 0.222231 0.291054 0.045766 -0.251642 -0.093457 0.140551 -0.112207 0.376596 -0.240323 0.404963 0.180095 -0.058112 -0.059069 -0.326043 0.236154 0.258749 0.310625 -0.267373 -0.050080 -0.180911 -0.247522 0.105429 -0.152791 -0.145154 -0.375307 0.003060 -0.058740 -0.102609 0.213681 -0.039835 
加 -0.084154 0.472277 0.244619 0.020393 -0.112536 -0.202403 -0.009793 0.040258 -0.170709 0.225942 0.144223 -0.448333 -0.235157 -0.257770 0.015276 0.325195 0.237790 0.132159 0.285168 0.217615 0.144422 -0.036815 0.092028 0.179700 0.128638 0.018814 0.308588 -0.412225 0.009869 -0.048549 0.150682 0.055137 0.155704 0.018527 -0.070630 -0.017941 0.156819 -0.249486 -0.240236 -0.044945 -0.293211 -0.023148 -0.334903 -0.270815 -0.213520 -0.166988 0.040599 0.322674 0.248650 0.057824 0.028772 0.144770 -0.000040 -0.163858 -0.069981 -0.192090 0.188938 -0.137572 0.218715 -0.056271 0.371122 0.160676 -0.132912 0.108208 
到 0.115125 0.067255 0.344539 0.258539 0.234623 -0.125128 0.188313 0.135008 -0.209907 0.055884 -0.291786 -0.314674 0.045647 -0.129851 -0.015399 -0.020676 -0.163497 -0.008554 0.355263 0.230695 0.102723 -0.041953 -0.065752 -0.141202 0.128656 0.066026 -0.127930 -0.198305 0.006774 0.016923 -0.023867 -0.067208 0.283591 -0.058985 0.153351 -0.192412 0.105730 -0.026428 -0.087029 0.113331 -0.043049 0.254831 0.056850 -0.014406 0.111259 -0.230386 0.094190 0.008203 -0.260554 0.049511 -0.285009 -0.099988 0.170767 -0.079661 -0.058488 -0.123579 0.092390 -0.245358 -0.124488 0.106954 0.095525 -0.128608 -0.031089 0.026478 
空 0.251912 -0.026449 -0.038953 -0.261057 -0.111104 -0.262689 0.213648 0.019233 -0.246002 -0.212339 0.169620 -0.016111 0.512222 -0.148105 -0.319250 0.184991 0.229397 0.410109 0.122493 -0.217864 0.018892 0.095923 -0.114044 -0.162288 -0.727211 0.133958 -0.218292 -0.112587 0.203554 0.371078 0.140659 -0.459696 -0.012897 -0.038267 -0.208309 -0.115837 0.534289 -0.047909 0.240964 0.212791 -0.242379 0.120006 -0.302563 -0.509837 -0.439920 0.328590 -0.023907 0.516343 0.077894 0.730411 -0.016774 -0.356333 -0.425718 -0.215164 -0.193118 0.105204 -0.499465 0.515975 -0.174658 0.547092 -0.445200 -0.566486 -0.019272 0.539663 
内 -0.211805 0.332184 0.198587 0.033182 -0.282790 -0.217380 0.213378 -0.018896 -0.479549 -0.034381 0.346139 0.107995 0.140404 -0.382801 -0.267425 -0.008509 0.181550 -0.483102 0.018417 0.137557 -0.170699 -0.032916 0.212498 0.182184 0.271141 -0.046783 -0.115194 0.089276 -0.370921 0.329560 0.063930 -0.628082 0.330233 -0.078953 -0.042644 0.408409 0.324402 -0.258185 -0.279326 -0.321744 0.186833 0.013902 -0.178798 -0.372189 0.551695 0.367929 0.361793 -0.103432 0.264880 -0.020925 -0.146155 -0.149380 -0.015901 -0.075731 -0.327276 0.431342 0.044070 0.107117 0.226957 -0.431440 -0.233963 -0.027420 0.327128 0.407395 
会 -0.008722 0.005761 0.029658 -0.160422 0.318151 -0.204502 0.007513 -0.006487 -0.054534 0.098292 -0.209572 -0.299241 -0.044814 0.066731 0.183185 0.081720 0.240123 -0.082172 0.388419 -0.171577 0.204603 -0.097282 0.221923 -0.039623 -0.015132 -0.104248 0.364544 0.188580 0.112599 0.016870 -0.207896 -0.007974 0.190879 0.094108 -0.015918 -0.076743 -0.258486 -0.029645 0.259325 0.093530 -0.203015 -0.056431 -0.183167 0.033141 0.150269 0.089788 0.055120 -0.002375 0.085169 0.199877 0.114057 0.024154 0.019169 -0.133409 -0.264681 0.040045 0.059118 -0.244892 0.153986 0.144513 0.232223 -0.075790 -0.142833 0.238814 
配 0.035372 -0.374770 0.149987 -0.403554 -0.045776 0.068567 0.300249 0.002464 0.161803 0.229021 -0.242474 0.207114 0.425091 -0.011430 0.392190 0.686185 -0.409182 -0.610188 0.150467 0.481238 -0.295258 -0.219130 0.182946 0.034563 -0.131441 0.021899 0.061874 0.128001 0.066819 0.083773 0.368141 0.120518 0.092188 -0.164855 -0.106195 0.124076 0.311680 0.195132 -0.272018 0.105113 -0.133681 0.124387 -0.587031 -0.068860 0.022957 0.188260 0.350772 0.146933 0.237487 0.090266 0.222503 -0.105988 -0.211607 0.174539 -0.113497 -0.363579 -0.173478 -0.089333 0.406350 -0.140894 0.324852 0.071183 0.259865 0.194295 
觉 0.035782 -0.015794 0.036426 -0.387176 0.203189 -0.009550 0.329664 0.065897 -0.622230 -0.099139 0.338984 -0.261854 0.018827 0.371391 -0.264043 0.122126 0.144395 0.111248 0.305801 0.237271 0.241828 0.354855 -0.209807 0.330944 -0.254324 -0.089134 -0.012870 -0.091427 0.544924 -0.441040 -0.555802 -0.483368 -0.620363 -0.169143 -0.083023 0.360125 -0.349207 0.072227 0.061689 0.430715 0.100695 -0.054869 -0.043658 0.126820 0.054523 -0.534220 -0.282281 -0.228660 0.140453 0.038143 -0.318977 -0.117458 0.343278 -0.030584 0.301857 -0.100310 0.080099 -0.127082 0.043492 -0.317254 -0.151655 -0.606060 0.301942 0.472306 
3 0.259935 -0.120286 0.222206 0.002292 -0.225881 -0.078297 0.195541 -0.077235 -0.182905 0.247828 -0.223112 -0.001647 0.226147 0.151603 -0.054500 -0.105777 0.141326 -0.435665 -0.057460 0.193475 0.232771 0.127841 -0.316198 0.111880 0.082977 0.189134 0.177020 -0.353564 0.279771 -0.023069 -0.128662 0.361167 0.228196 -0.244916 -0.064578 0.089197 -0.067770 -0.009195 -0.303189 -0.139217 0.196772 0.170959 0.098685 -0.365176 0.060167 -0.049271 -0.183642 0.113496 -0.261143 0.120255 -0.247515 -0.099423 0.002410 0.145943 0.138062 0.078902 0.078995 0.077152 -0.075258 0.119500 0.121379 0.363906 0.112561 0.407064 
感 0.075840 0.117276 0.364771 -0.187511 0.020286 0.238162 0.214196 -0.182002 -0.516645 -0.371411 0.344645 -0.549745 0.156403 0.353052 -0.274401 -0.296336 0.041005 0.113128 0.214556 0.483996 0.410379 0.178340 0.358580 -0.237281 -0.254286 -0.378941 -0.062380 0.191752 0.020783 -0.034224 -0.203511 -0.138926 -0.063043 -0.209384 -0.062917 0.425424 -0.455890 0.178506 -0.104604 0.329027 0.066488 0.088081 0.342372 0.312040 -0.055951 0.052220 -0.329247 -0.397017 0.214141 0.037640 -0.108098 -0.047404 -0.073403 0.105260 0.121425 -0.196615 0.468924 -0.365931 0.107148 0.074222 0.092295 -0.393955 0.096660 0.532893 
、 0.363433 0.052512 0.136765 -0.322983 -0.630546 -0.159932 0.660817 0.203143 -0.106303 0.163691 0.278526 0.013894 0.055645 -0.034714 -0.238126 0.021978 0.258625 0.124063 -0.114438 0.592167 -0.289883 0.223318 0.142942 0.190343 0.173338 0.210932 -0.066413 0.123145 0.271039 0.136607 -0.020538 -0.377303 0.338828 -0.104077 -0.016585 0.058715 0.214724 -0.007774 -0.559908 -0.310015 0.135564 -0.142986 -0.332480 -0.343693 0.062204 0.284086 0.401969 0.161672 0.232289 0.161346 -0.363359 0.012956 -0.314816 -0.201629 0.141938 -0.376500 -0.574666 0.242778 0.152278 0.181582 -0.087097 -0.141772 -0.156662 0.656189 
买 0.137712 0.157377 -0.101391 0.077020 0.162933 -0.126526 0.134578 -0.161194 -0.193512 -0.222526 -0.190594 0.171884 -0.072534 0.181518 0.176540 0.005589 -0.186471 -0.103591 -0.002365 0.155330 -0.160352 -0.212734 0.170723 0.162695 -0.080008 -0.033436 -0.200517 -0.198722 0.126575 -0.147493 -0.185966 0.315045 0.113199 0.173319 0.147162 0.084713 -0.024491 0.265521 0.050755 0.000368 -0.166266 -0.028532 0.023668 -0.347316 0.259113 -0.110304 0.060247 0.202409 -0.386274 -0.173796 -0.045728 -0.013339 -0.062519 0.016292 -0.102337 -0.151276 0.125187 -0.024663 0.106766 0.036649 0.084114 -0.160221 0.467159 0.172772 
全 0.542228 0.001626 0.709987 -0.212503 0.020312 0.152933 0.140225 -0.102953 0.272839 0.044460 0.044127 0.198476 -0.556129 0.105415 -0.068290 0.577218 0.129748 -0.112018 0.050212 0.438047 -0.229358 -0.062807 -0.069800 0.088589 0.109858 -0.197665 -0.287699 0.106009 0.073732 0.227058 0.001902 0.012087 0.103131 -0.209945 0.318445 -0.341781 0.274404 -0.296351 -0.111901 -0.172431 -0.190624 -0.170947 -0.200803 -0.331451 0.200530 -0.062104 0.272630 -0.715940 0.217098 0.044108 -0.349435 0.223027 -0.070705 0.399241 0.389065 -0.442730 -0.171174 0.055986 0.150040 0.012104 -0.027022 -0.499795 -0.028829 0.179388 
前 0.000629 -0.103234 0.233789 -0.165061 0.175960 -0.159879 0.365219 -0.537335 -0.268586 0.092900 -0.005364 -0.420795 0.008100 -0.023630 0.423200 -0.085699 0.090902 0.118385 -0.105461 0.164561 0.049559 -0.145849 -0.243373 0.065108 0.302885 -0.120391 -0.104377 -0.395029 0.050554 -0.057400 -0.119528 -0.191618 -0.160436 0.032740 0.044382 -0.095569 0.278338 -0.101283 0.310976 -0.213098 0.104628 0.319767 -0.156070 0.117735 0.052140 -0.431824 -0.254935 0.069350 -0.056475 0.165103 0.450422 -0.331504 -0.006320 0.162878 0.087427 -0.051322 -0.063837 -0.434212 0.029736 0.004409 -0.028693 0.225105 -0.131969 0.258142 
那 0.030550 0.062351 0.011410 -0.272213 0.230497 -0.072097 0.043204 -0.222412 -0.089801 -0.049826 -0.097853 -0.046811 -0.023893 -0.130033 -0.007325 0.145525 -0.013581 -0.145973 0.072611 0.291389 0.091774 0.096098 0.159402 -0.015500 0.023045 0.238429 0.065304 -0.136195 -0.061131 -0.021522 -0.369381 -0.030550 0.103615 0.109701 0.008005 -0.039632 0.040588 0.103377 0.143425 0.182323 -0.180636 0.211332 -0.034150 0.029064 0.164330 -0.094256 -0.097908 -0.355063 -0.008884 0.096916 0.043219 -0.060532 0.020175 -0.043395 -0.345130 0.095139 0.012343 0.168656 -0.047259 -0.102844 0.332631 -0.224943 0.104114 0.152180 
间 0.339006 0.054604 -0.162683 -0.083495 -0.582328 -0.084584 0.145139 -0.048545 0.031145 0.162164 0.091012 -0.608964 0.395958 -0.548053 -0.341178 0.371848 0.452733 -0.108619 -0.109869 -0.437300 0.115332 -0.239544 0.266344 0.342816 -0.625483 -0.214173 -0.334993 -0.136757 0.200932 0.003732 0.033121 -0.274250 -0.251646 0.099512 -0.002508 -0.578131 -0.157263 -0.046192 0.155642 -0.086001 -0.048873 0.095004 0.003698 -0.337306 -0.188857 0.090275 0.047480 -0.354301 0.209590 0.403756 0.024322 -0.354144 -0.318262 0.159148 -0.079194 0.007637 -0.014381 0.434803 -0.042618 0.215331 0.245774 -0.272743 0.344613 0.656991 
8 0.250349 -0.172045 0.476622 -0.076735 -0.056685 -0.071621 0.287110 -0.411142 0.067438 0.191009 -0.238401 -0.055302 0.122836 -0.085675 -0.018512 -0.082643 0.134172 -0.173117 0.193212 0.160060 0.207356 0.274281 -0.417883 -0.095570 0.261218 0.149333 0.259247 -0.281113 0.218968 0.048985 -0.035850 0.308260 0.391139 -0.428811 -0.063355 0.152419 -0.077058 -0.202562 -0.210931 -0.054815 0.384967 0.273032 0.284067 -0.404933 0.018944 -0.223003 -0.358326 0.332081 -0.173896 -0.131369 0.049905 0.149564 -0.051948 0.023787 0.110246 0.245036 -0.034368 0.068313 -0.012553 0.143124 0.197625 0.289361 0.022555 0.292597 
得 0.008901 0.065857 0.043755 -0.131093 0.156372 0.142646 0.022601 0.143662 -0.479018 -0.331166 0.137074 -0.232715 0.020368 0.347519 -0.129251 -0.143905 -0.012111 -0.126643 0.406139 0.223713 0.140875 -0.008234 0.175241 -0.009691 -0.278534 -0.393804 -0.165674 0.207376 0.235107 -0.038005 -0.281387 0.139741 0.034384 -0.228876 -0.218380 0.080526 -0.304929 0.200347 0.260992 0.265756 -0.048406 0.058878 0.451160 -0.094536 0.050922 -0.159649 -0.223735 -0.138359 0.002263 0.041733 -0.010589 0.025496 -0.036526 -0.119264 -0.108533 -0.210340 0.213059 -0.345836 -0.097116 -0.152759 0.205037 -0.392427 0.097919 0.568235 
样 0.387258 0.059860 0.036326 -0.051097 0.226597 0.003036 0.203948 -0.023095 -0.008045 -0.358137 0.212732 -0.356036 0.130603 -0.040105 0.350000 0.236281 -0.329561 0.086430 0.027631 0.025035 0.017812 0.267103 0.132233 -0.005319 -0.025122 0.005253 0.093248 0.147713 -0.055731 -0.158444 -0.133565 0.139883 -0.035471 -0.260813 0.017309 -0.103526 -0.005268 -0.189574 -0.011489 0.221209 -0.122030 0.303837 -0.147151 0.082069 0.367925 0.298533 0.037340 -0.210953 -0.073527 -0.389111 -0.004033 -0.016954 -0.134625 0.139560 -0.254778 -0.076733 -0.132911 -0.028652 -0.181849 0.086437 0.257557 -0.362149 0.309184 -0.039677 
万 0.212623 -0.093242 0.203683 -0.212447 -0.116389 -0.042116 -0.081534 -0.337055 -0.416645 0.124244 -0.411875 -0.033686 -0.010048 0.137396 0.156294 -0.033572 0.053540 -0.187968 0.025520 0.054474 -0.118396 0.046311 -0.420407 -0.167103 -0.082229 -0.129071 0.222949 -0.394991 0.453777 -0.151464 -0.183640 -0.036204 0.649450 0.024254 -0.078106 -0.158364 -0.036488 0.069308 -0.408435 -0.012191 -0.050938 0.505352 -0.055845 -0.405113 0.436551 -0.195650 0.088109 0.261082 -0.339030 0.347505 -0.360147 -0.091876 -0.024179 0.008409 0.091449 0.164708 0.554662 -0.416521 -0.419479 0.291220 -0.069138 0.216578 0.481553 -0.372778 
现 0.076210 0.129964 0.225412 0.065445 0.385473 -0.073220 -0.156501 -0.096713 -0.415482 0.036504 0.339335 -0.013427 0.101340 -0.080108 0.261234 0.104242 0.186091 -0.482159 0.036921 -0.548271 0.470576 -0.111308 0.133248 -0.168952 0.151712 -0.054337 -0.165177 -0.151229 0.434541 -0.056262 -0.253955 -0.078458 0.322530 -0.239720 0.160654 -0.303794 -0.124003 0.340850 0.172524 -0.368063 0.033080 0.268673 -0.121014 -0.197140 -0.107723 -0.152393 -0.231364 -0.185051 -0.209868 0.047420 -0.068585 0.177797 -0.155780 0.040420 0.138971 0.097328 0.137721 -0.270369 0.141092 0.278157 -0.071849 -0.172977 -0.245891 0.118145 
差 -0.054630 -0.044584 -0.189597 -0.039047 0.021011 -0.218422 0.154258 -0.096211 -0.322119 -0.228761 -0.076115 -0.287216 0.558963 0.114187 0.063432 0.050749 0.045110 -0.257630 -0.086133 0.050973 0.129489 0.023561 0.148814 0.168029 -0.123644 -0.118459 -0.024558 0.199383 0.234837 0.116322 0.214140 -0.018359 0.384212 -0.116737 -0.151220 0.515075 0.083965 -0.115028 -0.306466 -0.098777 -0.166245 -0.129583 -0.284957 -0.239209 0.462223 -0.239278 0.442582 0.167532 0.539180 0.059054 0.113991 -0.067025 -0.156383 0.130461 -0.335813 -0.231243 0.135623 -0.177128 0.022091 0.198787 0.195489 -0.109779 -0.118256 -0.161324 
实 0.243153 0.288814 0.091770 0.175997 0.105737 0.263431 0.049584 -0.219754 -0.420542 -0.233346 0.027713 -0.076735 0.537694 0.123980 -0.078798 0.025787 -0.287986 -0.343102 0.083945 -0.126925 0.082114 0.273437 -0.051270 0.149478 -0.105645 -0.461606 0.137416 -0.093137 -0.052575 -0.039639 0.191700 -0.298957 0.200260 -0.291475 -0.058963 -0.310695 -0.258435 0.045761 -0.085461 -0.002572 -0.023482 -0.552996 -0.018634 -0.205625 -0.386117 0.177779 -0.086365 -0.491373 -0.217453 -0.095553 0.826639 0.526179 0.367939 0.141681 -0.308537 -0.094002 0.051855 0.155299 0.181710 0.138011 0.119345 -0.145786 0.032766 0.033393 
但 -0.034343 0.165778 -0.040959 -0.050098 0.037520 -0.234163 0.220938 -0.109901 -0.289239 0.160778 0.011943 -0.015625 0.073422 0.138561 0.112803 -0.066036 0.193008 -0.236122 0.106785 0.036889 0.026576 -0.026191 0.289870 -0.000511 -0.281441 -0.163700 0.030675 0.041559 0.163980 0.210220 0.100603 -0.224780 0.100929 -0.120042 -0.057476 -0.121757 0.043660 0.030220 -0.030521 0.118411 -0.051933 -0.148687 0.001003 0.029042 0.081856 0.018897 0.101871 -0.016732 0.144947 0.077679 0.184662 0.073183 0.132168 -0.036214 -0.010566 0.077845 0.080641 0.050882 0.157317 -0.194371 0.067305 -0.118588 -0.061840 0.086632 
自 0.134404 0.541925 -0.275355 -0.258782 -0.031833 -0.485273 0.344819 0.480307 -0.347121 0.048387 -0.587471 0.327389 0.323701 0.330061 0.020325 -0.340763 -0.083069 0.347727 0.163477 0.602042 -0.051377 -0.375566 0.261702 -0.259852 -0.148019 -0.081271 -0.343379 -0.248053 -0.092452 -0.084719 -0.319170 0.110055 -0.039977 0.303619 -0.058267 -0.119803 -0.274466 0.423184 -0.066680 -0.298510 0.015402 0.113203 -0.286013 -0.018741 0.206197 0.234983 -0.133595 0.434083 -0.306772 0.134354 -0.112188 0.292458 -0.208718 -0.124134 0.293009 -0.221408 -0.602956 -0.236464 -0.067728 0.044563 0.330740 -0.119696 -0.049390 -0.131038 
如 -0.281077 0.417133 0.116217 0.109186 -0.084199 0.565891 0.180491 0.152330 -0.015789 -0.581390 -0.284217 0.058919 -0.003121 0.234966 0.050101 -0.308777 0.055879 -0.239829 -0.080299 -0.067423 0.339451 -0.003373 0.554911 -0.130270 -0.007368 0.183055 0.377817 -0.031006 0.258064 -0.020969 0.073217 0.198551 0.014553 0.029944 -0.275012 -0.298295 -0.057324 -0.402470 -0.168130 -0.402414 0.025875 -0.109325 -0.336980 -0.394996 -0.088819 -0.170774 0.035632 0.145117 -0.100946 0.147621 -0.112749 0.333007 -0.045613 -0.309066 -0.129817 0.060183 -0.020400 -0.076681 0.043647 -0.109737 0.032872 -0.499815 0.360903 0.217368 
音 -0.044838 -0.012552 -0.464919 -0.325577 -0.069885 -0.406241 -0.261500 0.196860 -0.153229 0.404320 0.224646 -0.102231 -0.019623 -0.407951 0.114892 -0.602682 -0.321329 -0.069327 -0.065035 0.076852 0.453146 -0.065188 0.260711 -0.481577 0.139424 0.125700 -0.020623 -0.249919 0.152772 -0.037925 0.333282 -0.857978 -0.117657 -0.514782 0.322264 0.142173 -0.350184 -0.187967 -0.457138 -0.067659 -0.088042 -0.025144 -0.446073 -0.078744 -0.049099 -0.145500 0.572426 -0.578041 0.348683 0.291916 -0.118319 0.372854 0.370394 -0.263187 -0.577483 -0.483857 0.209603 -0.162085 -0.347471 -0.131524 0.350345 -0.056512 -0.035355 0.299818 
问 -0.328480 0.284996 0.038358 -0.148155 0.450592 0.478946 0.120016 -0.083725 -0.013668 -0.186677 -0.013107 -0.224274 -0.458992 0.320039 -0.069245 0.042185 0.461511 -0.444832 -0.074537 0.065446 0.252439 -0.055109 0.212425 -0.030539 -0.088395 0.334174 -0.131337 -0.287964 0.171483 0.238531 -0.163399 0.283258 0.131403 -0.317354 0.090247 -0.426939 0.491890 -0.112077 0.122926 -0.010902 -0.003243 0.036245 -0.582104 0.098398 -0.110840 -0.124987 -0.279588 -0.281249 -0.423213 -0.044232 0.036537 0.118422 0.154666 -0.287032 -0.078186 -0.472462 -0.452924 -0.000091 -0.024724 0.119692 -0.383900 -0.095622 0.173460 -0.529541 
6 0.109865 -0.266455 0.381656 -0.101170 0.035950 -0.081821 0.373211 -0.339017 -0.156141 0.240460 -0.202904 0.098445 -0.061472 -0.049524 0.055664 -0.080298 0.038786 -0.282764 0.076904 0.213217 0.190376 0.157872 -0.406736 -0.034284 0.257240 0.333904 0.196002 -0.401325 0.308311 0.033524 -0.099250 0.208433 0.402099 -0.348693 0.042325 0.108492 -0.034465 -0.111815 -0.196064 -0.041206 0.226187 0.207841 0.228514 -0.437810 0.029441 -0.062746 -0.330065 0.426424 -0.346433 -0.025035 -0.120000 -0.128200 -0.125891 0.117887 0.076213 0.115193 -0.031862 0.150411 -0.114797 0.077903 0.217144 0.287948 0.141922 0.302197 
公 0.332017 -0.149740 0.619877 0.371025 -0.450697 0.237260 -0.072617 -0.374816 -0.495483 0.785409 0.071804 -0.437325 0.231046 0.128833 0.145752 -0.692303 -0.012760 -0.037228 0.139760 0.189758 0.049110 0.356852 -0.787096 -0.062299 -0.205129 -0.287245 0.474146 -0.035037 0.205867 0.209018 -0.144503 -0.114113 0.390884 0.042425 -0.366249 -0.247503 0.001690 -0.075320 -0.186804 -0.181964 0.139954 0.516632 0.106082 -0.651832 0.302043 -0.499260 -0.074052 0.302822 -0.445994 0.144004 -0.207371 0.603176 0.324076 0.003604 -0.042379 -0.061706 0.272035 -0.087637 -0.340714 0.316844 -0.216273 0.384008 0.056880 -0.656228 
刹 -0.136555 -0.036383 -0.089886 -0.188242 0.392936 0.655284 0.272865 -0.094444 0.054757 -0.189692 0.054421 -0.475937 -0.519103 0.121113 0.203232 -0.100058 0.211946 0.105065 0.389154 -0.245334 -0.212666 0.247574 -0.328406 0.507240 0.532999 -0.305455 0.126307 -0.332562 0.030788 -0.206127 -0.490338 -0.192853 -0.059576 0.412373 -0.165820 0.102646 0.150558 0.277034 -0.115300 -0.178920 0.183146 -0.174819 -0.447211 -0.048391 -0.436754 0.073080 0.053939 0.098484 -0.168264 0.188238 -0.116168 0.018303 -0.280950 -0.085180 -0.558040 -0.369753 -0.018043 -0.169466 -0.081532 -0.038316 0.413679 0.201575 -0.364807 0.283106 
出 -0.251366 0.317773 0.039258 0.060200 -0.017727 -0.422060 0.296467 0.190320 0.021475 0.085523 -0.146171 -0.340107 0.180457 0.299420 0.244247 0.307834 0.124722 -0.166019 0.053398 0.064960 0.054770 0.028566 0.198904 -0.138718 0.049246 -0.007080 -0.239065 -0.125182 0.119362 -0.203071 -0.155334 -0.374628 0.360496 -0.047428 0.472506 -0.148713 0.183968 0.079303 0.059020 0.097739 0.097911 0.188436 -0.141934 0.071318 0.041096 -0.154367 -0.043440 -0.128418 -0.414401 0.120687 0.079078 0.115680 -0.135438 -0.433209 -0.129343 -0.282451 -0.251076 -0.062658 -0.046810 0.347813 -0.311565 0.022753 0.073919 0.185959 
小 -0.120996 0.116662 -0.227875 -0.426314 -0.246275 0.030797 0.245814 -0.092995 -0.184014 0.147033 0.052633 -0.222108 0.084821 -0.028499 0.112126 -0.121801 0.242532 -0.066988 0.088402 -0.168960 -0.134275 0.024494 0.070392 0.095318 -0.287813 -0.149425 -0.410565 -0.162443 0.063991 0.442874 -0.122002 -0.161651 0.108749 -0.150574 0.124688 0.273065 0.044729 0.051086 0.258576 -0.002815 0.071849 0.028249 0.221539 -0.424331 -0.120975 -0.203409 0.113652 -0.180442 0.103722 -0.057424 0.329420 0.098538 0.020280 -0.263386 -0.269873 -0.182926 -0.106466 0.469787 0.128086 0.325277 0.117622 0.023817 0.044405 0.137787 
四 0.700779 0.168788 0.529569 -0.039373 0.047872 0.486639 0.508780 -0.007014 0.174170 -0.156077 -0.173416 0.075196 -0.574947 0.503804 -0.136745 0.200816 0.201915 -0.401703 -0.370366 0.249599 0.295801 -0.379309 -0.111816 0.208497 0.043420 0.042550 -0.501225 -0.063338 0.043369 0.546858 -0.600304 -0.153387 -0.068432 -0.305968 0.096749 -0.210603 0.014385 -0.268533 -0.345303 -0.375654 -0.473260 0.003259 -0.110159 -0.369131 -0.075767 -0.082700 0.309318 -0.179303 -0.044213 0.158384 -0.099062 -0.118049 -0.014315 0.145130 0.179914 -0.424964 -0.469453 0.365260 0.075898 -0.066281 -0.254444 -0.381435 -0.283061 -0.241664 
外 -0.003640 0.145056 0.292047 0.252965 0.067494 0.300930 0.205018 0.002928 -0.779216 0.209582 0.217533 0.108912 0.072403 -0.083506 -0.054971 0.083743 0.161526 -0.170337 -0.097413 0.066223 0.198539 0.220148 0.175803 -0.279317 0.125965 -0.161589 0.038711 0.086534 -0.351412 0.498799 -0.231451 -0.252821 0.112957 -0.135821 0.116219 0.352361 0.303538 0.518175 0.093229 0.100332 -0.111424 -0.137933 -0.332484 -0.337662 0.305510 0.398608 -0.250780 0.018433 0.299460 0.228542 0.292914 0.320994 -0.325441 0.208858 0.120415 0.328922 -0.191984 -0.093980 -0.070404 -0.433008 -0.293026 -0.387968 0.607423 0.263694 
置 0.288666 -0.447467 0.150914 -0.467816 -0.112732 0.052511 0.305928 -0.124340 0.058076 0.163046 0.172700 0.337596 -0.328653 0.234733 -0.183314 0.663920 -0.166918 -0.579966 0.298013 0.382821 0.295539 -0.358795 0.336161 -0.137712 0.069733 0.055516 -0.139821 0.540909 0.191489 0.297068 0.548294 0.011747 -0.112707 -0.433153 0.147372 -0.662094 -0.025127 0.390892 -0.159902 0.346306 -0.273194 0.324782 -0.277764 0.108368 0.014297 0.449547 0.343167 0.123977 0.512601 0.435830 0.132620 -0.207219 0.028912 0.136586 -0.123289 -0.026288 0.153384 -0.118276 0.314504 -0.023347 -0.108163 -0.123821 0.719716 0.332041 
吧 0.178427 0.053762 -0.006927 -0.139527 0.118923 0.123643 0.033684 -0.098413 -0.203109 0.019024 -0.127400 -0.002180 0.015925 0.187604 0.022638 -0.138901 -0.065927 -0.118012 0.179951 0.051132 -0.016615 -0.137657 0.013869 0.077569 0.004932 -0.019592 0.087277 -0.104460 0.170022 0.005805 0.174081 0.132560 0.127661 0.012146 0.056140 0.028143 -0.106227 0.053553 0.097524 0.133062 0.051513 0.061176 -0.121431 -0.150305 0.203893 -0.201340 -0.004891 0.148696 -0.227743 -0.097503 0.082240 -0.012431 0.007343 -0.002447 -0.043156 -0.089441 -0.012166 -0.025339 -0.005724 0.021167 0.146339 -0.183528 0.107530 0.196729 
控 0.628168 -0.125303 0.296771 0.250223 -0.623989 -0.022398 0.545124 -0.051318 -0.070772 -0.116834 0.510056 -0.365476 -0.149116 0.253172 0.406493 -0.424480 0.566675 -0.238966 -0.317337 -0.025582 -0.074011 0.524752 0.521004 0.497034 -0.501969 0.441351 -0.627107 0.123939 0.382441 -0.470739 -0.052526 -0.228233 -0.191997 -0.022442 0.005299 -0.335549 -0.359051 0.564727 -0.028060 -0.031015 0.143798 -0.351527 -0.235035 -0.078153 0.361154 -0.226345 0.544759 -0.046051 0.625543 0.019595 -0.109167 0.188342 0.135826 -0.471230 -0.146513 -0.002194 -0.616207 0.021500 0.020894 0.057852 -0.072664 0.190686 -0.000636 0.244570 
对 0.198600 -0.278503 0.106120 -0.090205 0.046046 0.438351 0.046063 -0.145471 -0.104499 0.317355 0.167972 0.175024 -0.121487 0.307604 -0.181402 0.225155 -0.034714 -0.194370 0.444472 0.144719 0.035610 -0.585603 0.125068 -0.019583 -0.106800 0.390854 -0.061160 0.340895 0.108294 0.094301 0.104351 -0.115096 -0.221676 -0.013840 0.120450 -0.080807 -0.465751 -0.312888 0.111841 0.120698 -0.257699 0.130568 -0.366001 0.145834 -0.134385 -0.227827 0.511309 0.055379 0.031734 0.034945 0.251682 0.104137 -0.008406 -0.110457 0.012253 0.071651 -0.084932 -0.076927 0.489545 0.097273 0.059440 -0.360670 0.310552 0.191738 
盘 0.216691 0.005328 0.317202 0.313445 -0.175862 0.232849 0.366722 0.437366 -0.295042 -0.323857 0.332866 -0.261938 -0.598188 0.039722 0.021169 -0.157752 0.123320 0.198370 0.345158 0.265537 0.237941 0.090072 0.484396 0.307344 0.502748 0.329286 -0.045528 0.365452 0.232429 0.064222 0.261570 -0.247171 0.464309 0.219488 -0.239724 0.064329 0.418666 0.594236 -0.221371 0.183756 0.508100 -0.136817 0.134019 0.313764 -0.437450 0.199105 -0.520652 -0.350074 0.002913 0.644988 0.149548 0.183440 -0.250905 0.197098 -0.656881 -0.172531 0.200410 -0.186124 0.138294 0.029161 0.715427 -0.268185 -0.352613 0.210134 
保 -0.252613 0.333797 -0.241196 -0.131931 -0.644142 0.707382 0.226371 -0.251623 -0.231542 -0.043764 0.199293 0.133677 0.373126 -0.184211 0.060479 0.339925 0.366560 0.023002 0.713022 0.056570 -0.335819 -0.452800 -0.152099 0.065727 -0.340999 0.075470 0.456640 -0.460053 0.233574 0.370308 0.091891 -0.193550 0.161879 0.135921 0.439316 -0.044994 0.095201 -0.003183 -0.053243 -0.405782 -0.258754 0.395033 0.574598 -0.074456 0.566514 0.329675 -0.090095 -0.330975 -0.116399 0.043571 0.259120 0.164232 0.026922 -0.063294 0.151107 -0.119626 -0.180472 -0.198096 -0.452264 0.017193 0.215497 0.097961 -0.346099 -0.041442 
最 0.152541 0.260515 0.229777 0.028790 0.093680 -0.234756 0.494891 -0.060785 -0.119900 0.112818 -0.177053 0.288748 0.185931 0.295231 0.024686 -0.375206 0.324419 -0.109168 -0.114826 0.031749 -0.072706 0.004658 0.077539 0.343402 -0.038010 -0.093584 -0.051569 -0.189758 0.058410 0.193243 0.232924 -0.080020 -0.084091 -0.265829 -0.086016 -0.249474 -0.029953 0.238426 -0.127067 0.281592 -0.086217 0.197157 0.009234 0.014627 -0.038864 -0.006240 0.046767 0.059264 -0.083746 0.155318 -0.098283 -0.011070 -0.197922 0.035662 -0.066672 -0.208548 -0.060138 -0.382466 0.224729 -0.058341 0.461567 0.097753 0.009537 -0.106790 
去 0.024148 0.402766 0.217021 0.327879 -0.079369 -0.124367 -0.082011 -0.265559 -0.019012 0.009748 -0.464062 0.017839 0.229823 0.047894 -0.040406 -0.092180 -0.015045 -0.098075 0.194257 0.095103 0.061944 -0.164780 0.212024 0.265689 0.113366 0.156481 -0.176972 -0.348302 -0.329050 -0.068907 -0.380959 0.029274 0.152841 0.242630 0.291423 -0.078033 -0.164550 0.184998 0.154752 0.212210 0.072687 -0.020043 0.148069 -0.247837 0.007070 -0.095616 0.041481 -0.077742 -0.075161 0.167552 -0.211412 -0.369234 -0.086553 -0.021855 0.018275 -0.664886 0.001009 -0.272148 -0.118066 -0.038869 -0.007762 -0.311993 0.053052 -0.090759 
定 0.310665 0.288789 -0.324194 0.332376 0.071506 -0.323206 0.025611 -0.465002 0.063785 -0.474484 -0.123986 -0.396312 -0.547040 0.054826 -0.176426 0.176975 0.408502 -0.155928 0.125806 0.264661 0.111635 -0.364435 0.222262 0.103105 -0.321044 -0.133290 0.354588 0.089135 0.168573 0.156417 0.032997 0.289732 0.245075 -0.085535 -0.025167 -0.198242 -0.488138 0.107163 0.330178 -0.209448 0.129518 -0.035923 -0.197907 -0.181477 0.235061 0.018720 0.191796 -0.330333 0.078378 0.069282 0.042073 0.288267 0.111903 0.338155 -0.166564 -0.052468 -0.187687 -0.326668 -0.211379 -0.051469 -0.160949 0.120956 0.194399 -0.055067 
低 0.046720 0.000336 0.030641 -0.148054 0.253813 -0.318258 0.421555 0.166510 0.320699 0.130027 -0.237478 0.183953 0.175306 -0.062031 -0.295074 0.116983 -0.027812 0.172303 0.316426 0.038697 0.278826 -0.155294 -0.110779 -0.103403 -0.383394 -0.168081 0.419043 0.060626 0.275259 0.254877 0.309985 0.103566 0.195926 -0.439630 -0.092964 -0.218774 -0.176292 0.256744 -0.317937 0.058534 0.004463 0.026621 -0.202353 -0.181791 0.074847 -0.122135 0.232300 -0.164383 0.354862 0.206059 -0.118625 -0.002026 0.202066 0.041086 -0.337050 -0.010641 -0.328532 -0.403314 0.012783 0.109264 0.263414 -0.053187 0.188882 0.195272 
饰 0.003921 0.004847 0.183119 0.001682 -0.311518 -0.383387 0.371180 -0.013805 -0.691062 0.020918 0.356369 -0.143386 0.022222 -0.127790 -0.387750 -0.198063 0.302823 -0.634950 0.057858 -0.010973 0.401096 -0.179577 0.540958 0.050507 0.196267 -0.193286 -0.044908 0.092354 -0.400222 0.136882 -0.220430 -0.380413 0.621756 -0.023503 0.003025 0.330907 0.167698 0.312332 -0.229096 -0.171912 -0.165519 -0.070373 -0.257050 0.202804 0.512278 0.910683 0.439976 -0.042343 0.705296 0.298731 -0.137829 -0.511296 0.413744 0.128502 -0.378576 0.449545 0.157430 -0.128109 0.212329 -0.675401 -0.154590 -0.347796 0.603289 0.636946 
年 0.022996 0.148331 0.362233 -0.236487 -0.128391 -0.091980 0.093056 -0.304660 -0.326018 0.110140 -0.007816 -0.347177 -0.068675 0.243219 0.244423 -0.047867 -0.341454 0.145157 -0.052829 -0.100894 0.147139 0.027988 -0.383341 -0.126010 -0.026771 -0.001500 -0.009128 -0.181053 0.239074 -0.071725 -0.115413 0.392099 0.593610 0.048248 0.297220 0.330007 -0.041819 0.292880 -0.123052 -0.036243 0.168696 0.403847 0.443293 -0.193992 0.117919 -0.138813 0.158912 0.224587 -0.490786 -0.069503 -0.385327 -0.130820 0.049647 -0.086010 -0.111459 -0.149733 -0.102425 -0.009271 -0.094940 0.553928 -0.007613 -0.032710 0.234043 -0.203485 
主 0.170304 0.173756 -0.172016 -0.196504 0.020791 0.062401 0.151372 -0.008183 -0.254830 0.316973 -0.138133 -0.144305 -0.162901 -0.164835 -0.529933 -0.188169 0.044482 -0.508328 -0.173032 -0.023792 -0.246163 0.058657 0.179985 0.184578 -0.015595 0.362543 -0.376732 0.143069 0.198020 0.110123 0.222268 0.125735 -0.291106 0.077473 0.363176 -0.433371 -0.215716 0.158143 -0.105200 0.288897 -0.070530 0.074564 -0.265002 0.008327 -0.265363 -0.185186 -0.132205 -0.152456 -0.294650 0.181781 -0.012123 0.187697 0.107502 0.273684 0.054380 -0.144991 -0.295438 -0.390137 -0.182014 -0.005743 0.411726 -0.253556 0.470971 -0.005967 
方 0.442700 0.068359 0.483083 -0.043657 -0.194614 -0.067720 0.263275 0.257003 -0.094796 -0.209440 0.366719 -0.013542 -0.367538 -0.253284 0.310003 0.148970 0.394350 0.098233 0.660938 -0.204227 -0.053152 0.053862 0.366779 0.381990 -0.150237 0.670081 0.185430 0.214998 -0.002636 0.222575 0.211102 -0.616001 0.112148 0.611617 -0.119387 -0.130241 0.144440 -0.043659 -0.402131 0.111189 0.362058 -0.222875 -0.182712 0.078688 -0.023405 0.057052 -0.385993 -0.535235 -0.251835 0.224944 0.610476 -0.141584 -0.413757 -0.033986 0.102256 0.077689 -0.134203 -0.432583 -0.323540 -0.033793 0.137887 0.059525 0.233147 -0.355185 
新 -0.033711 0.233190 0.090122 -0.120853 0.109264 -0.040810 0.102134 -0.400016 0.058934 0.009674 0.189773 0.304981 -0.162275 0.061014 0.330640 -0.052953 -0.004570 -0.448550 0.032964 0.249498 0.241255 -0.006097 0.247140 0.122909 0.293655 -0.090525 0.130293 -0.206040 0.306799 0.028404 -0.428126 0.194560 0.199549 0.130462 -0.013948 0.104173 0.160511 0.254990 0.174119 -0.110609 0.036490 -0.176867 0.031202 -0.340881 -0.334594 0.161636 0.041185 0.147871 -0.118680 0.013413 0.101218 -0.046638 -0.281978 0.098353 0.060729 0.336318 0.178863 -0.286271 0.388331 0.232588 0.160055 -0.271139 0.304827 0.333955 
面 0.229595 0.037777 0.343895 0.223432 -0.115943 -0.184902 0.015063 0.021477 -0.063058 0.219628 0.087360 -0.230933 0.113297 -0.252691 0.087059 -0.228267 -0.004770 -0.013762 0.343150 0.063431 -0.178953 0.145008 0.398172 0.349019 -0.035975 0.187153 -0.153159 0.314984 -0.209035 0.281741 -0.077388 -0.373734 0.300911 0.345085 0.136737 -0.034391 0.262273 -0.225410 -0.192185 -0.039693 -0.078957 0.110578 -0.394263 -0.108028 -0.250916 -0.261633 -0.407977 -0.038849 0.283888 0.303412 0.342879 0.337416 -0.023787 0.287013 -0.060909 -0.067521 -0.321141 -0.242726 -0.330774 0.015944 -0.035542 -0.226656 0.190927 -0.068415 
烧 -0.117412 0.098668 -0.120066 -0.107360 0.368652 0.152310 -0.220072 -0.120632 -0.485044 0.713685 0.035971 -0.055046 -0.116444 -0.122621 0.019807 -0.111915 0.388625 0.030717 0.259958 -0.247405 -0.221641 -0.109981 -0.067507 -0.270535 -0.229378 -0.003741 0.297199 0.249511 -0.032184 -0.268576 -0.140480 0.136786 0.191196 -0.378698 0.634690 -0.687382 -0.144946 0.313092 -0.014333 0.043503 0.142953 0.070984 -0.032705 -0.085964 0.523817 -0.083714 0.016925 0.200751 -0.242318 -0.141176 -0.198406 -0.045404 0.132021 -0.095241 -0.053241 0.390167 0.004464 0.125044 0.226049 0.054009 -0.018073 -0.237357 -0.452485 -0.214157 
本 0.317427 0.032524 -0.057773 0.083691 -0.360352 -0.297316 0.179975 -0.024448 0.321229 0.375060 0.417390 -0.501351 -0.032378 0.355387 -0.030205 0.231676 -0.379208 -0.159594 0.410711 -0.319383 0.088090 -0.322564 0.486054 0.139971 -0.094816 -0.127125 -0.003997 -0.249426 0.490586 -0.030632 0.052010 0.053018 -0.145039 -0.430220 -0.001743 0.029632 0.567341 0.274389 -0.084306 -0.220564 -0.314908 0.181775 -0.059495 0.082269 0.050179 -0.088739 -0.057905 -0.057266 -0.155700 -0.828711 -0.235731 0.415956 -0.161089 -0.127457 -0.659758 0.164053 -0.274193 -0.050098 -0.106004 0.133841 -0.097046 -0.339069 -0.157117 -0.077664 
9 0.085406 0.030838 0.436719 0.125232 -0.068403 -0.125153 0.295272 -0.346689 -0.067119 0.219302 0.147145 -0.274562 0.177189 -0.082734 0.103200 -0.070958 0.190246 -0.420504 0.170697 0.101636 0.128275 0.280978 -0.296744 -0.118228 0.090969 0.061377 0.427814 -0.435564 0.201930 -0.103159 -0.106618 0.320971 0.049973 -0.446177 -0.064718 -0.046079 -0.313445 0.003308 -0.344235 0.175968 0.327763 0.322214 -0.039406 -0.385079 -0.156588 -0.272805 -0.305548 0.460778 -0.019463 -0.148068 -0.074614 0.112720 0.037290 -0.045187 0.075864 0.118289 0.036406 0.070477 0.186399 -0.044892 0.016674 0.317305 0.059434 0.033374 
子 0.161847 0.224195 -0.061720 0.055775 0.299455 0.202955 0.051979 -0.216667 -0.301304 0.194848 0.028502 0.342887 -0.119661 0.339269 0.027448 0.015195 -0.092795 -0.150736 0.105768 -0.036234 -0.207748 0.321581 0.277053 0.245074 0.007017 0.267377 -0.049959 -0.073541 -0.339109 0.082859 -0.503146 -0.289565 -0.141157 0.348041 0.102147 0.012865 -0.084839 0.055606 0.364930 -0.078869 -0.280329 0.281113 -0.117326 -0.332671 -0.127871 0.105903 0.078365 -0.282296 0.004737 0.234504 0.014525 0.122258 -0.152827 0.101099 -0.311764 -0.158824 -0.100423 0.269143 -0.500503 0.072571 0.419415 0.085322 -0.064261 0.241140 
行 0.144388 0.203137 0.050259 -0.173028 -0.153012 0.019569 0.212536 -0.093126 -0.080224 0.300428 0.285588 -0.422790 0.201758 0.208241 0.062095 0.232437 -0.245500 -0.095718 -0.040368 0.024506 -0.308931 -0.205217 -0.018838 0.086044 -0.049906 -0.262387 -0.036065 -0.190677 -0.005906 0.084330 -0.088649 -0.054661 -0.087924 0.326071 -0.460753 -0.129639 0.098913 -0.185503 -0.036085 0.176205 -0.006031 0.004697 -0.113015 -0.103502 0.015850 0.070981 -0.143598 -0.065963 0.171021 0.093186 -0.299165 0.259919 -0.081043 0.016529 -0.196978 -0.048277 -0.077826 -0.214285 0.051797 0.357668 0.230072 -0.011608 -0.016910 0.027799 
太 -0.139386 0.145494 -0.251544 -0.062805 -0.121895 0.043912 0.076566 -0.155883 -0.425443 0.278685 -0.141542 -0.299835 0.240725 0.175395 -0.086678 -0.016308 0.047414 -0.232548 0.081122 -0.223762 0.094707 -0.011161 0.076376 -0.116154 0.061959 -0.275257 -0.034611 -0.112410 0.151346 0.151883 0.335932 -0.267409 0.031770 -0.074319 -0.167626 0.229197 0.123818 -0.077565 -0.051404 0.398795 -0.119827 -0.072333 0.044963 -0.113665 0.226881 0.023913 0.098909 -0.063014 0.209392 0.293113 0.316324 -0.196716 -0.202817 0.033227 -0.174105 -0.087150 0.055143 0.095552 0.173592 -0.057716 0.275214 -0.295833 0.008869 0.254158 
只 0.089456 0.161854 0.069626 -0.010923 0.113540 -0.146184 0.303695 -0.020631 -0.175794 0.031899 -0.102495 -0.097736 -0.113534 0.004185 0.043321 0.053383 0.024267 -0.057276 0.255363 0.143730 -0.041362 0.022090 0.114552 0.039144 -0.069050 0.078042 0.024016 -0.111360 0.103617 0.047664 0.003201 0.047279 0.072983 -0.131531 -0.046704 -0.068493 0.021547 -0.016094 0.148974 0.114976 -0.083683 0.079389 -0.191081 0.007782 0.013735 0.046960 0.285748 0.035724 -0.053242 -0.001658 0.001748 0.068977 0.049769 -0.067094 0.061038 -0.068964 0.124267 -0.025340 -0.087581 -0.125116 0.102376 -0.101638 0.089379 -0.016975 
度 0.152698 0.250610 0.143947 0.047794 -0.242746 -0.226921 0.549704 -0.094326 -0.069281 0.156514 -0.260057 -0.103422 0.215077 -0.336425 -0.113205 0.071478 0.176756 0.279731 0.179389 0.095834 0.634760 0.137741 -0.105725 0.039611 -0.114677 0.020349 0.262718 0.008349 -0.021521 0.356287 -0.242118 -0.002966 0.192501 -0.075377 -0.310366 -0.390827 0.065668 0.136854 -0.350394 0.042630 0.069637 -0.272505 0.001411 0.502854 -0.133550 -0.096783 0.074306 -0.227075 -0.129223 -0.103522 -0.314939 0.276482 -0.086591 -0.048309 0.015094 -0.157177 -0.043966 -0.291032 0.546859 0.405151 0.182345 0.263601 -0.189467 0.588400 
更 0.126691 0.374372 0.057402 -0.310275 -0.155304 -0.212647 0.404475 -0.283395 -0.212311 0.069120 0.145241 0.026891 0.120181 -0.014084 0.328137 -0.319920 0.291239 0.120175 -0.035285 -0.134686 0.041060 0.094930 0.099388 0.103346 -0.213585 -0.121935 0.369283 0.250612 -0.058587 0.207168 0.000016 -0.078250 0.054550 0.169777 0.170676 -0.269475 -0.095181 0.050527 -0.211195 0.035781 -0.099500 -0.253776 -0.026145 -0.194967 -0.202475 0.196111 -0.044174 0.067805 -0.035158 -0.015805 0.250681 0.100126 -0.227474 0.049651 -0.110734 -0.163647 -0.000535 -0.098923 0.160588 -0.184392 -0.044776 0.012686 -0.111869 0.106125 
别 0.070784 0.115599 -0.144994 -0.255453 0.231574 0.018162 0.434870 -0.285325 -0.314059 -0.127115 0.263625 -0.342067 -0.061845 -0.187720 -0.339945 0.077999 -0.338652 0.158398 0.076951 0.136994 0.392924 -0.187824 0.123760 0.055563 -0.397909 0.141239 -0.385843 -0.130882 -0.114984 0.125201 0.008074 0.030231 -0.077740 -0.193757 -0.327399 0.347691 0.278643 0.139161 0.118424 0.141012 -0.211996 0.280029 -0.339117 -0.285044 0.006246 -0.270615 0.362135 -0.076118 0.058813 -0.049714 0.317838 0.120126 -0.015964 -0.363487 -0.026883 0.047798 0.207898 0.258510 -0.227387 -0.448945 0.126869 -0.012215 0.068655 -0.119675 
果 -0.326683 0.346264 -0.025004 0.022766 -0.309563 0.503383 0.118117 -0.379075 -0.560566 -0.504402 -0.112531 0.039297 -0.005884 -0.053645 0.318566 -0.041783 -0.238916 0.237735 -0.029648 0.055094 0.219313 0.008815 0.487395 -0.132376 0.096711 -0.228445 0.270547 -0.242506 0.400379 0.125140 0.263043 0.567196 -0.410193 0.141208 -0.160844 -0.318832 -0.163296 -0.308130 -0.023798 -0.362313 0.424752 -0.060855 -0.632511 0.094862 0.254233 -0.216844 0.130764 0.239539 -0.518411 0.401440 -0.036594 0.019620 0.129593 -0.516980 -0.049657 -0.008697 -0.199029 -0.459587 -0.101276 -0.281060 0.352348 -0.366084 0.236094 0.220291 
道 0.127328 0.207135 -0.220582 0.149027 -0.030670 0.003734 0.092892 -0.065791 0.146753 0.034349 0.010782 -0.284828 0.022353 -0.119656 0.041941 -0.228872 -0.148514 -0.096115 0.507304 -0.375374 0.106450 0.061384 -0.049671 -0.054989 -0.154586 0.164119 -0.126897 0.485548 0.337790 -0.072745 -0.295872 0.205812 0.376257 0.553221 -0.202419 -0.012539 0.411682 -0.504154 -0.159211 0.293691 -0.457496 -0.002621 0.100470 -0.228918 0.353649 0.217037 0.226291 -0.455692 -0.448120 -0.130303 -0.198529 0.056283 0.166654 -0.236850 -0.202578 0.453730 0.239387 -0.198066 0.273520 -0.142978 -0.350186 -0.170315 -0.448210 0.758003 
平 0.771891 -0.118798 -0.156744 -0.089636 -0.193806 0.208196 0.008813 -0.387848 0.268863 0.833796 0.190930 0.496055 -0.546697 0.111427 0.073999 0.391143 -0.196556 -0.112536 0.713054 0.160969 -0.061493 -0.437297 -0.276407 -0.261757 0.134573 0.004790 -0.605674 0.320991 0.224532 0.266530 -0.018244 0.010935 0.045906 0.049709 -0.356029 -0.401639 -0.443852 -0.183905 -0.203639 -0.223169 0.434720 0.115749 0.001607 0.074852 0.184259 -0.034870 0.001174 0.430975 0.193242 0.033797 0.196557 0.341802 -0.128174 -0.228377 -0.089560 -0.311116 0.140725 -0.139626 0.700836 0.127597 -0.206878 -0.383696 0.207412 0.220873 
变 -0.335165 0.240361 0.033038 -0.053116 0.606895 0.046830 0.493153 -0.187483 -0.077569 0.179042 0.126157 -0.466312 -0.177026 -0.095527 0.115166 -0.109645 0.515784 0.154511 0.073023 0.454835 0.713717 -0.042353 0.002994 0.020012 0.213251 0.145474 -0.082804 -0.345774 0.407308 0.262758 -0.155585 0.055615 -0.220216 -0.514013 0.355751 -0.267773 0.188503 0.051841 -0.252548 -0.076969 -0.607691 -0.051779 -0.236373 0.283845 0.377425 0.461939 -0.250119 0.270737 0.396310 0.041754 -0.058847 0.129980 -0.587900 0.248922 -0.362875 0.135574 -0.215243 0.213331 0.253510 0.218077 0.359358 -0.067622 -0.168665 -0.516623 
题 -0.472695 0.018425 -0.426540 -0.108942 0.427385 -0.016673 -0.205451 -0.458875 -0.376741 -0.126320 0.208453 -0.317835 -0.219698 0.020384 0.082760 0.365927 0.278469 -0.351934 0.049401 -0.155153 -0.084177 0.120770 0.328174 -0.035486 -0.123596 0.182549 -0.089120 -0.236896 0.366478 0.274005 0.021996 0.537929 0.035760 -0.193081 -0.045358 -0.494783 0.524873 -0.251590 0.162859 0.027772 0.548588 0.033398 -0.622303 0.382230 -0.037940 0.109416 -0.164589 -0.406046 -0.652006 0.202061 -0.147194 0.094961 0.580043 -0.397684 -0.135793 -0.594496 -0.443443 -0.355678 0.182355 0.242320 -0.351598 -0.092553 0.030506 -0.309757 
驱 1.047205 -0.207813 0.678717 0.378446 -0.217382 0.252285 0.419654 -0.307515 0.204813 -0.316626 -0.482629 -0.018635 -0.680577 0.382064 0.238087 0.589917 0.011742 -0.080940 -0.233915 0.168176 -0.208301 -0.235111 -0.165930 0.274168 -0.375023 -0.027950 -0.463053 0.170368 -0.042043 0.495374 -0.166121 -0.102405 -0.061906 -0.289290 0.231412 -0.231890 -0.052338 -0.222060 -0.120641 -0.313748 -0.168376 0.457485 -0.385537 -0.181009 -0.066229 0.010789 0.746010 -0.395756 0.269146 0.033398 -0.130926 -0.100614 -0.016943 -0.061549 0.524195 -0.075421 -0.125313 0.232386 0.116987 -0.244573 0.161004 -0.710312 -0.598232 0.229780 
箱 -0.201148 0.490000 -0.160590 0.317809 0.514592 0.282469 0.177407 -0.203054 0.111354 0.113732 0.240307 -0.662574 -0.057664 0.002270 0.206023 -0.004878 0.055329 0.377374 0.291583 0.562554 0.570853 0.069979 -0.074391 -0.015780 0.477224 0.078688 0.101640 0.034620 0.529656 0.459268 0.108360 0.015421 -0.104776 -0.044194 0.548520 -0.682074 -0.008326 -0.626056 -0.036866 -0.097471 -0.477181 0.175306 -0.121941 0.373495 0.330441 0.208305 0.089496 0.440254 0.781979 0.078436 0.116441 0.163132 -0.519599 0.429136 -0.583546 -0.154090 -0.105477 0.568080 -0.002788 0.525782 0.089587 -0.002859 0.219659 -0.039862 
调 0.305122 -0.097613 -0.038028 -0.274063 -0.422111 -0.330655 0.191440 -0.107611 -0.021861 -0.474859 -0.146098 -0.547202 0.140324 -0.317858 -0.341188 0.284850 0.219843 0.042651 0.095523 -0.051414 0.017600 -0.106172 0.505834 -0.555327 -0.038306 -0.130180 0.035494 0.064223 -0.027703 -0.156146 -0.062703 -0.340599 0.144569 -0.016051 0.032619 -0.450589 0.297051 -0.028916 0.371483 0.509818 -0.270735 0.326317 -0.127564 -0.039437 -0.317285 0.125851 -0.315852 0.418579 -0.119128 0.398983 -0.112267 -0.155486 -0.367205 0.071743 -0.413936 -0.173466 -0.513146 0.122650 -0.306974 0.547999 -0.156792 -0.170414 -0.359415 0.464830 
路 0.373672 0.040446 0.346946 0.490698 -0.051726 -0.217817 0.024164 -0.265838 -0.206054 0.504213 0.320294 -0.066806 0.129370 0.003955 0.009089 0.125381 0.120229 -0.215998 0.266054 -0.108948 0.272128 0.323837 0.484597 -0.025844 -0.261953 0.364712 0.060485 -0.203571 -0.226504 0.375150 -0.115094 -0.279141 -0.278870 0.788455 -0.167022 0.039715 -0.087686 -0.429514 -0.347618 0.005351 0.379889 0.026108 0.095513 -0.162079 0.041378 -0.380584 -0.362886 -0.374202 0.020524 0.254155 -0.477374 0.304924 -0.420358 0.272719 -0.094466 0.009964 -0.424842 -0.175076 0.155100 -0.201624 -0.207838 -0.057082 -0.121816 -0.137562 
观 -0.323004 0.719100 0.056576 0.400367 -0.052258 0.117837 0.527788 0.098930 -0.563000 0.421805 -0.030110 -0.066840 0.018192 -0.098239 -0.113397 0.547043 0.077580 -0.264115 -0.457536 -0.022674 -0.170417 -0.001572 -0.088826 -0.118011 0.213518 -0.419094 -0.116431 0.378885 -0.139231 0.500065 -0.757891 -0.027322 0.078374 -0.130457 0.192527 0.324568 0.242144 0.357721 -0.492155 0.151757 0.427452 0.051842 -0.247807 -0.117575 0.616719 0.257851 -0.063762 -0.174269 0.549702 -0.120849 0.256475 0.127812 -0.217578 0.228044 0.251190 0.346622 -0.196762 -0.324791 -0.041395 -0.421184 0.257383 -0.760004 0.511632 0.642873 
少 0.242591 -0.086694 -0.208317 -0.308948 0.115028 0.154305 -0.068324 -0.104229 -0.228066 0.171089 -0.424442 0.016747 0.100084 -0.067594 0.257020 0.146902 0.085715 -0.120074 0.039243 -0.097493 0.152065 0.157742 0.072043 0.023647 -0.198193 -0.204394 0.297455 0.027305 0.109414 0.237678 -0.056283 0.158092 0.389537 -0.113040 -0.323446 0.054105 -0.031410 0.281197 -0.137939 0.134397 -0.246236 -0.030512 0.135402 -0.364448 0.280340 -0.306466 0.181545 0.088194 0.117820 0.108490 0.157421 -0.114453 -0.181621 -0.033674 -0.464592 -0.315870 0.236708 -0.311248 -0.213751 0.268745 0.121114 -0.075740 -0.087289 -0.123111 
为 -0.201047 -0.016213 -0.079122 -0.097567 0.421683 0.005339 0.505210 -0.187283 0.031264 0.100703 -0.060320 -0.256776 -0.329054 -0.136416 -0.107714 0.041748 -0.078420 -0.306506 -0.129499 0.415566 -0.199799 -0.409502 -0.154640 0.024512 -0.440401 0.077418 -0.010934 0.222723 -0.346943 -0.263037 0.259874 -0.003154 -0.186768 -0.104839 -0.016848 -0.275650 0.064545 0.056607 0.202656 0.105816 -0.071937 0.404340 -0.180198 -0.268809 0.354825 -0.126137 0.172304 -0.357207 -0.265723 -0.117309 -0.049625 0.364140 -0.215953 0.142731 -0.424840 0.142803 -0.317198 -0.404194 -0.031535 0.026522 -0.262174 0.143075 0.048510 0.198786 
其 0.061983 -0.034108 -0.129542 -0.078647 0.242789 -0.199044 0.351203 -0.480910 -0.407888 -0.177435 0.021139 -0.227691 0.491165 0.079712 0.305749 0.409679 -0.094511 -0.163702 -0.001186 0.119319 -0.002324 -0.179145 0.052090 0.348032 -0.163894 0.157822 -0.225897 -0.268294 -0.047953 -0.013523 -0.313687 -0.514754 -0.028128 0.100884 0.131463 -0.557535 -0.040338 0.037115 -0.499973 0.328675 0.202338 -0.369058 -0.282607 0.025855 0.090733 0.292007 -0.157451 0.004798 0.037152 0.315749 0.558098 -0.045528 0.517110 -0.002548 0.030849 0.063520 0.524673 0.723783 0.142598 0.047873 -0.171501 -0.315643 -0.329587 -0.036291 
操 0.747386 -0.166794 0.152143 -0.156594 -0.453280 0.329728 0.365954 -0.566818 -0.133282 -0.197999 -0.266632 -0.140537 -0.156367 0.048438 0.025565 -0.275855 0.299416 -0.332962 -0.294473 0.146254 -0.386398 0.023327 0.247768 0.019722 -0.602074 0.397835 -0.265633 0.216555 0.511136 -0.087063 0.203701 -0.325837 -0.579706 0.021146 -0.115151 -0.015173 -0.199298 0.368633 -0.456123 -0.204912 0.187748 -0.268322 -0.350703 -0.021263 0.370764 -0.155197 0.372156 -0.120995 0.891129 0.076422 0.237392 0.125186 -0.129002 -0.307887 0.482740 -0.207971 -0.093358 0.287357 0.220357 0.065779 -0.251843 -0.511515 -0.137398 0.410901 
什 -0.033287 -0.002005 -0.047893 -0.463801 0.533242 0.189231 0.587979 -0.030444 -0.216394 0.210984 0.052712 0.074699 -0.082121 -0.477004 0.214187 0.306623 -0.166142 -0.453453 -0.100996 0.278229 0.611511 0.298613 0.059243 -0.274008 -0.236203 0.633756 -0.073534 -0.086632 -0.359473 -0.330394 -0.312235 0.278281 0.051450 0.320788 -0.316866 -0.018308 0.453293 0.050550 0.084003 0.241889 -0.142138 0.460723 0.292969 0.069053 0.420564 0.056828 -0.112496 -0.327059 -0.351434 -0.191867 0.490259 0.352246 0.152515 -0.284097 -0.435393 -0.092695 -0.210007 0.078435 -0.317960 0.091106 -0.012610 -0.546918 0.016967 -0.003974 
S 0.165932 0.153637 0.385746 -0.165852 -0.172954 0.260534 -0.285831 -0.342998 0.307944 -0.136972 0.148160 0.068784 0.758612 0.085606 0.128521 -0.096148 -0.040208 -0.562028 0.309687 0.403904 0.035406 -0.547188 -0.123885 -0.013358 0.348895 0.362671 -0.436056 -0.386419 0.489584 -0.225197 -0.056688 0.015180 0.369869 0.063749 0.110553 -0.317796 0.145210 0.029485 0.590325 -0.117356 0.484424 -0.361733 0.001656 -0.116647 -0.273339 0.140928 0.447632 0.032506 -0.096496 -0.221994 -0.156020 0.155467 -0.710418 -0.302595 -0.096207 -0.174761 -0.190458 -0.006696 -0.373321 -0.194290 0.472133 -0.221647 -0.099696 -0.213801 
常 0.217559 0.140888 0.103753 -0.306062 0.419242 -0.183424 0.390484 -0.036829 -0.110339 0.225516 0.376067 -0.296294 -0.037100 0.195584 0.372372 -0.086904 -0.161333 -0.231366 0.220620 -0.437298 0.056921 -0.008584 0.362878 -0.173767 0.059977 -0.114733 0.364046 -0.089734 0.106867 0.244107 0.537165 -0.164537 0.079738 -0.086010 -0.594790 -0.061203 -0.503932 -0.319257 -0.108044 0.008850 -0.038683 -0.031556 0.632897 -0.002507 0.049845 -0.398997 0.215236 0.093842 -0.155893 0.416484 -0.385233 0.312696 -0.434304 -0.176656 0.535610 -0.030628 -0.542817 0.027135 -0.312864 -0.096295 -0.042621 -0.519708 -0.668921 -0.011629 
原 -0.123263 -0.168842 -0.314672 -0.017345 -0.352656 -0.192578 0.387020 -0.395897 0.061902 0.376053 -0.258382 -0.672379 0.010999 0.042082 -0.067696 0.116476 -0.054080 -0.132683 0.073167 0.217707 0.098215 0.133148 0.388687 0.292961 0.495540 -0.095958 -0.138335 0.434036 -0.060852 -0.543242 0.153493 0.029441 -0.187416 -0.160191 -0.124454 -0.263571 -0.080874 -0.002601 0.234384 0.313269 -0.245800 0.262083 -0.165104 -0.027580 0.038418 -0.072774 0.075869 -0.384413 -0.474530 0.143516 -0.020238 0.005537 -0.280582 0.084370 -0.427776 -0.066760 0.109265 -0.274685 -0.340732 -0.260009 -0.306779 -0.014575 0.186755 0.168138 
响 -0.300957 -0.164071 0.061305 -0.352500 0.582299 0.189496 -0.101458 0.032156 -0.174065 0.182214 0.145247 -0.638911 -0.062685 0.098944 0.519522 -0.207416 0.014392 -0.237706 0.133690 -0.106320 0.087298 -0.152665 0.307946 -0.147032 0.358723 0.419998 0.138813 0.041914 0.084263 0.035934 0.086534 -0.612319 0.492014 -0.024180 -0.096716 -0.336393 -0.363001 -0.358686 -0.087020 -0.360555 -0.254350 -0.078726 -0.285308 0.411110 0.305919 -0.267558 0.437006 -0.388484 0.260484 0.126575 -0.406382 -0.243388 -0.265720 -0.353039 -0.415289 -0.327118 -0.074818 0.019574 -0.055033 0.109389 -0.121617 -0.227272 -0.027058 -0.096071 
中 0.189750 0.409706 0.320259 -0.086556 -0.293201 0.087480 0.070703 -0.342697 -0.032076 0.271811 0.260733 -0.082160 0.110046 -0.178045 -0.128078 -0.078887 -0.109933 -0.017185 -0.043939 -0.189096 -0.394710 -0.189090 0.438810 0.050039 0.248272 0.193267 -0.171383 0.145228 0.127128 -0.336976 0.068460 -0.249428 0.039786 -0.036470 -0.114222 -0.378666 0.286529 0.267299 -0.193028 -0.106429 0.216971 -0.190026 -0.135889 -0.289269 0.338931 -0.023104 0.351846 -0.019615 0.272361 0.072834 0.153164 0.156094 -0.285730 -0.257155 0.019521 -0.072739 0.165622 0.282213 -0.049082 0.364030 -0.002391 -0.080768 0.150790 0.247708 
手 0.288417 0.012121 -0.216315 -0.328221 0.401193 0.100349 0.413526 -0.066493 -0.273838 -0.232443 -0.325816 0.007955 -0.211716 0.058984 -0.164110 0.017786 -0.134846 0.225106 0.517040 0.269108 -0.288740 -0.182984 0.228642 -0.030264 0.330434 -0.050795 -0.188802 -0.376859 0.240590 -0.111065 0.213617 -0.132154 -0.224531 0.183581 0.194117 0.156061 0.154303 0.008928 0.088723 0.212053 0.030847 -0.124707 0.123888 -0.358556 -0.222906 0.294174 -0.100035 0.191228 -0.047456 0.085461 -0.146068 0.278284 -0.088360 -0.395582 0.226718 -0.004742 -0.067367 -0.081891 -0.499973 0.484338 0.066816 0.366543 0.230122 -0.163127 
合 0.202138 0.095850 0.288253 -0.359875 0.067171 0.011569 0.749689 -0.012305 0.143766 -0.091165 0.084728 0.211625 0.294298 -0.099002 -0.312654 -0.274461 -0.014813 0.422000 0.070881 0.026851 -0.250156 -0.159350 -0.054539 0.278466 -0.254549 -0.028952 0.293768 0.226325 0.007684 0.170956 0.117103 0.232418 -0.263090 0.047852 0.407848 -0.017183 -0.084114 -0.254137 -0.578878 0.266307 0.072833 0.064070 -0.536058 -0.157780 0.525415 -0.407860 -0.429202 -0.249672 -0.479642 0.193388 -0.232501 0.326943 -0.871088 0.376391 -0.149731 -0.128676 -0.127271 -0.262934 0.075814 -0.442952 0.000858 0.030893 0.146229 -0.028077 
装 -0.170446 0.437205 0.047102 0.342466 -0.414075 -0.340446 0.218809 0.099370 -0.223371 0.222302 0.436505 -0.253689 -0.348149 0.215900 0.105292 0.190779 -0.296201 0.078985 0.220745 0.697558 0.026868 -0.194079 0.655650 0.113119 0.448545 0.184492 -0.007612 -0.025807 -0.255866 -0.268854 0.207390 0.080305 0.107522 -0.157668 -0.230089 0.155922 0.513966 -0.074576 -0.010296 0.170916 -0.178416 -0.013032 -0.137728 -0.390570 -0.427114 -0.168067 0.149875 -0.327984 -0.225221 0.254153 0.099411 0.009780 -0.025001 0.098216 0.062621 -0.269606 0.083353 -0.199539 -0.287615 -0.425703 0.154521 0.097050 0.042495 -0.035214 
些 0.114009 0.129773 0.028272 -0.066359 0.080603 -0.225048 0.265105 -0.035070 -0.131209 -0.177083 0.089608 -0.056969 0.225966 0.139993 0.448505 -0.055820 0.069695 -0.020246 0.135909 0.003698 -0.032431 0.110902 0.334361 0.051839 -0.552254 -0.254380 0.203053 0.137838 -0.026869 0.267198 0.042799 -0.109670 0.252024 -0.184870 0.144718 -0.178266 -0.030423 -0.135350 -0.165400 0.051296 -0.029193 -0.011609 -0.255347 -0.105031 0.195475 0.091023 0.147761 -0.022606 0.138810 -0.096595 0.082160 0.090919 -0.009180 0.135954 -0.012644 -0.009510 -0.031878 -0.214462 0.151007 -0.237633 0.149923 -0.113862 0.263393 -0.132301 
T 0.232058 0.022294 0.137531 -0.121067 0.276480 -0.474253 0.045240 -0.013428 0.129671 0.149472 0.010015 -0.126183 0.416432 0.136761 0.283151 -0.064013 -0.112350 0.060886 -0.080037 0.553061 0.298872 -0.253296 -0.272856 -0.442425 0.261599 0.550962 -0.238811 -0.355436 0.660421 -0.262621 0.126985 0.658924 0.230028 -0.127404 0.103007 0.083839 -0.101564 -0.253485 -0.244175 -0.215012 0.202342 -0.396031 -0.386146 -0.275836 -0.021384 0.542454 0.119190 -0.017694 0.170849 -0.529864 0.125576 -0.140176 -0.408491 0.355170 -0.104049 0.095089 -0.143237 -0.011666 -0.195476 -0.077951 0.486091 -0.179848 -0.020706 0.273530 
s 0.207698 -0.122653 -0.213946 0.071647 -0.332356 -0.170778 -0.624886 -0.416259 0.209524 -0.207853 -0.146506 -0.219145 0.003097 0.099538 -0.456228 -0.195862 -0.447583 -0.740122 0.065296 0.350893 0.181793 -0.328778 -0.040397 0.069719 -0.091472 0.289906 0.380005 -0.511275 0.297114 0.364511 -0.661388 -0.160838 0.127327 0.005843 0.846676 0.133974 0.146790 0.092684 0.553523 -0.089563 0.107151 -0.082697 0.054393 -0.385677 -0.140288 -0.007408 0.116023 -0.070935 -0.118407 0.323820 0.140469 -0.000779 -0.713436 -0.597089 -0.147698 -0.489415 0.129551 -0.214414 0.246744 -0.694241 0.356880 0.053247 -0.241939 -0.327812 
天 0.365625 0.573353 0.281015 -0.110750 -0.189980 -0.491940 -0.432996 -0.400816 -0.137798 -0.386527 0.234072 -0.228911 -0.333300 -0.132733 0.018411 -0.058838 -0.057576 0.134790 0.632156 -0.363814 0.501826 -0.093555 -0.339560 -0.290855 -0.097394 -0.044607 -0.126983 -0.030420 -0.694736 0.071808 0.124229 0.128159 0.535374 -0.122129 0.110956 -0.422068 -0.101896 0.285951 -0.195219 0.056631 -0.063349 0.307218 -0.074147 -0.236125 -0.050674 -0.564291 0.071632 -0.062028 0.065554 0.105194 -0.155158 -0.436555 -0.000646 0.301061 0.044249 -0.530470 -0.150295 0.073920 -0.091237 0.118061 -0.434553 0.023706 0.053775 0.332474 
真 0.092802 -0.000450 0.006668 0.138424 0.088749 0.034557 0.136252 -0.163197 -0.483214 0.114540 0.051126 -0.015495 0.063696 0.378694 -0.311895 -0.014915 0.061140 -0.176179 0.051767 -0.064160 -0.049107 0.046284 -0.165512 0.068588 -0.167923 -0.108411 -0.207941 -0.086918 0.074866 0.067305 0.366451 -0.021714 -0.074409 0.008824 0.127562 -0.251369 0.079011 -0.206949 0.147493 0.484327 -0.160069 -0.335026 0.119221 -0.196897 0.138044 -0.223136 0.113075 -0.149639 0.073062 -0.101371 0.291103 -0.215353 0.041136 0.006153 -0.195240 0.032320 -0.051585 -0.022661 0.008227 -0.195845 0.310894 -0.316639 -0.048070 0.333588 
底 -0.101872 0.186466 -0.049913 0.633902 -0.476705 0.429687 0.142838 0.240810 -0.443796 -0.267375 0.331966 0.129520 -0.429036 -0.010849 0.149150 -0.037822 0.069950 0.263107 0.256920 0.439745 0.150716 -0.423800 -0.041374 -0.017055 0.153949 0.252819 0.077888 -0.073279 0.264531 -0.135555 -0.111320 -0.193618 0.473984 0.035875 -0.033689 -0.136536 0.487670 0.309129 -0.271521 0.455493 0.258159 0.006006 0.258333 0.239374 -0.251807 0.063666 0.132778 -0.464597 -0.239184 0.390958 -0.005433 0.245179 -0.074866 0.332179 -0.643305 -0.269691 -0.059435 0.097481 0.216582 0.063866 0.557650 -0.193352 -0.508136 0.081718 
适 0.376339 0.081278 -0.237440 -0.481137 -0.408475 -0.256380 0.726710 -0.147574 0.106585 -0.119442 0.293438 0.434749 0.475222 -0.382332 0.402337 -0.558657 -0.028128 -0.012977 -0.155494 0.167900 0.190304 0.166475 -0.396666 0.023718 -0.738656 -0.264588 -0.114838 0.005325 0.126938 0.260030 0.245242 0.100755 -0.350339 0.416384 0.355971 -0.300580 0.013603 -0.010790 0.032106 0.053406 -0.445547 -0.356903 -0.528363 -0.033766 0.264501 0.000120 0.041764 -0.592016 -0.194698 0.145137 -0.416052 0.235214 -0.055326 0.270013 0.017293 -0.463690 -0.290065 -0.033837 0.487595 -0.175448 -0.022480 0.003374 -0.119313 0.832029 
地 0.661294 0.305251 0.293747 0.062345 -0.255243 -0.309466 0.217440 -0.040036 -0.021425 -0.184395 -0.000569 0.142837 0.168249 0.165373 0.152069 0.001701 -0.015139 0.151987 0.255602 -0.363696 0.339623 -0.134123 0.090837 0.263420 0.130349 0.651705 -0.104061 -0.005446 0.078051 0.349653 -0.142371 -0.080265 0.160217 -0.069116 -0.303628 -0.095785 0.018524 -0.124547 -0.547810 0.172041 0.008018 0.200932 -0.144710 0.365727 -0.342794 -0.055749 -0.202041 -0.418564 0.161152 0.293578 0.141186 -0.207024 0.214833 0.046639 -0.273830 -0.391528 0.039324 -0.031541 -0.362822 -0.172101 -0.095303 -0.141525 0.021068 -0.314012 
斯 0.226715 0.338365 0.427120 -0.452141 0.140440 0.332155 -0.037543 -0.557464 0.052520 0.025995 -0.337742 -0.232775 -0.270677 0.011900 -0.077244 0.109931 -0.369880 0.142051 -0.203977 -0.269045 -0.465786 -0.148912 0.548950 0.079193 -0.058713 0.174857 -0.289006 -0.547574 0.127150 -0.868618 0.218792 0.025388 0.568889 -0.377539 0.361509 0.097703 -0.272481 0.053168 0.446714 0.098971 -0.008159 -0.275352 0.487329 0.267360 0.721225 0.005619 0.441847 0.568387 0.098729 0.048934 0.521906 0.700653 0.063830 0.845853 -0.221633 0.344600 -0.534346 -0.231370 0.354800 -0.308962 -0.260591 -0.358412 -0.381134 0.243087 
排 -0.461093 0.212598 0.216041 -0.023661 0.005694 -0.502814 -0.155630 0.001135 -0.261464 0.183285 -0.354205 -0.037897 0.033359 0.001080 0.206621 0.646436 -0.197730 0.263282 -0.046947 0.187871 -0.051314 0.092438 -0.168122 0.435658 -0.510046 -0.068134 -0.110589 0.330848 0.276752 0.267928 0.223691 -0.450672 0.126898 0.011675 0.356347 -0.536651 0.269325 -0.423352 0.409664 0.047916 0.069021 0.756968 -0.483332 -0.449140 -0.697183 -0.240139 0.037924 -0.071697 0.307606 -0.079733 0.013255 0.078178 -0.389422 -0.086517 -0.275453 -0.158675 0.218176 0.201787 0.044318 0.361015 0.035681 0.226346 -0.026885 0.875402 
优 0.522358 0.024645 -0.040262 -0.007274 -0.156246 -0.079241 0.231506 -0.139165 -0.268190 -0.313163 -0.523789 0.257967 -0.106794 -0.292188 0.591846 0.175237 0.142987 -0.698364 0.208144 -0.101775 -0.364121 0.104153 0.387562 -0.422657 -0.333134 0.087231 -0.229959 -0.172388 0.661532 0.625515 -0.434839 0.280024 0.223192 -0.395344 -0.172929 -0.136196 0.257045 0.626570 -0.120193 -0.373384 0.166271 0.148430 -0.015383 0.224730 -0.145559 -0.863126 0.365213 -0.217141 -0.083849 -0.225958 0.371963 -0.250137 0.005026 0.208189 0.052256 0.428176 0.197753 -0.240622 0.011975 0.142896 0.256607 0.159989 0.489383 -0.139914 
国 0.199014 0.347894 0.339492 -0.593566 0.078444 0.060858 0.196620 -0.031245 0.034467 0.140494 0.269067 0.116368 0.859368 0.043635 -0.269439 0.405221 -0.281243 -0.240987 -0.275130 -0.227447 -0.238524 -0.273918 0.473901 0.334481 0.393201 -0.178235 -0.032526 -0.037440 0.269222 -0.094171 -0.325176 0.198652 0.460140 0.162658 0.278726 0.050835 0.101925 0.288318 -0.384719 -0.131480 -0.198531 0.229933 -0.257815 -0.166016 0.136489 -0.037955 0.183008 -0.153656 -0.089573 0.316326 -0.338495 0.159347 0.096763 -0.034939 -0.307030 0.268576 -0.054223 -0.044399 0.099239 -0.475381 -0.588976 0.005923 0.125648 0.216021 
应 0.058315 -0.385564 -0.084282 -0.367865 0.154279 0.016350 0.291188 -0.632455 -0.211082 0.069980 -0.096330 -0.110203 0.155261 0.536453 -0.054177 -0.222703 0.187682 0.355809 0.060790 -0.074070 0.484750 -0.084473 0.379101 0.100177 0.241704 -0.135573 0.208792 0.372378 0.211878 0.429874 -0.220181 0.460407 0.026958 0.207253 0.053535 -0.030866 0.250745 -0.497946 -0.017729 -0.079814 0.280042 -0.307170 -0.968699 0.416604 0.552776 -0.199614 0.207701 0.099977 -0.317075 -0.003111 0.228409 -0.337109 0.144886 -0.352236 0.214764 -0.133678 -0.002074 -0.306095 0.075316 0.134385 0.213518 -0.022266 -0.301448 0.003259 
